{"learner":{"attributes":{"scikit_learn":"{\"_estimator_type\": \"classifier\"}"},"feature_names":[],"feature_types":[],"gradient_booster":{"model":{"gbtree_model_param":{"num_parallel_tree":"1","num_trees":"800"},"iteration_indptr":[0,4,8,12,16,20,24,28,32,36,40,44,48,52,56,60,64,68,72,76,80,84,88,92,96,100,104,108,112,116,120,124,128,132,136,140,144,148,152,156,160,164,168,172,176,180,184,188,192,196,200,204,208,212,216,220,224,228,232,236,240,244,248,252,256,260,264,268,272,276,280,284,288,292,296,300,304,308,312,316,320,324,328,332,336,340,344,348,352,356,360,364,368,372,376,380,384,388,392,396,400,404,408,412,416,420,424,428,432,436,440,444,448,452,456,460,464,468,472,476,480,484,488,492,496,500,504,508,512,516,520,524,528,532,536,540,544,548,552,556,560,564,568,572,576,580,584,588,592,596,600,604,608,612,616,620,624,628,632,636,640,644,648,652,656,660,664,668,672,676,680,684,688,692,696,700,704,708,712,716,720,724,728,732,736,740,744,748,752,756,760,764,768,772,776,780,784,788,792,796,800],"tree_info":[0,1,2,3,0,1,2,3,0,1,2,3,0,1,2,3,0,1,2,3,0,1,2,3,0,1,2,3,0,1,2,3,0,1,2,3,0,1,2,3,0,1,2,3,0,1,2,3,0,1,2,3,0,1,2,3,0,1,2,3,0,1,2,3,0,1,2,3,0,1,2,3,0,1,2,3,0,1,2,3,0,1,2,3,0,1,2,3,0,1,2,3,0,1,2,3,0,1,2,3,0,1,2,3,0,1,2,3,0,1,2,3,0,1,2,3,0,1,2,3,0,1,2,3,0,1,2,3,0,1,2,3,0,1,2,3,0,1,2,3,0,1,2,3,0,1,2,3,0,1,2,3,0,1,2,3,0,1,2,3,0,1,2,3,0,1,2,3,0,1,2,3,0,1,2,3,0,1,2,3,0,1,2,3,0,1,2,3,0,1,2,3,0,1,2,3,0,1,2,3,0,1,2,3,0,1,2,3,0,1,2,3,0,1,2,3,0,1,2,3,0,1,2,3,0,1,2,3,0,1,2,3,0,1,2,3,0,1,2,3,0,1,2,3,0,1,2,3,0,1,2,3,0,1,2,3,0,1,2,3,0,1,2,3,0,1,2,3,0,1,2,3,0,1,2,3,0,1,2,3,0,1,2,3,0,1,2,3,0,1,2,3,0,1,2,3,0,1,2,3,0,1,2,3,0,1,2,3,0,1,2,3,0,1,2,3,0,1,2,3,0,1,2,3,0,1,2,3,0,1,2,3,0,1,2,3,0,1,2,3,0,1,2,3,0,1,2,3,0,1,2,3,0,1,2,3,0,1,2,3,0,1,2,3,0,1,2,3,0,1,2,3,0,1,2,3,0,1,2,3,0,1,2,3,0,1,2,3,0,1,2,3,0,1,2,3,0,1,2,3,0,1,2,3,0,1,2,3,0,1,2,3,0,1,2,3,0,1,2,3,0,1,2,3,0,1,2,3,0,1,2,3,0,1,2,3,0,1,2,3,0,1,2,3,0,1,2,3,0,1,2,3,0,1,2,3,0,1,2,3,0,1,2,3,0,1,2,3,0,1,2,3,0,1,2,3,0,1,2,3,0,1,2,3,0,1,2,3,0,1,2,3,0,1,2,3,0,1,2,3,0,1,2,3,0,1,2,3,0,1,2,3,0,1,2,3,0,1,2,3,0,1,2,3,0,1,2,3,0,1,2,3,0,1,2,3,0,1,2,3,0,1,2,3,0,1,2,3,0,1,2,3,0,1,2,3,0,1,2,3,0,1,2,3,0,1,2,3,0,1,2,3,0,1,2,3,0,1,2,3,0,1,2,3,0,1,2,3,0,1,2,3,0,1,2,3,0,1,2,3,0,1,2,3,0,1,2,3,0,1,2,3,0,1,2,3,0,1,2,3,0,1,2,3,0,1,2,3,0,1,2,3,0,1,2,3,0,1,2,3,0,1,2,3,0,1,2,3,0,1,2,3,0,1,2,3,0,1,2,3,0,1,2,3,0,1,2,3,0,1,2,3,0,1,2,3,0,1,2,3,0,1,2,3,0,1,2,3,0,1,2,3,0,1,2,3,0,1,2,3,0,1,2,3,0,1,2,3,0,1,2,3,0,1,2,3,0,1,2,3,0,1,2,3,0,1,2,3,0,1,2,3,0,1,2,3,0,1,2,3,0,1,2,3,0,1,2,3,0,1,2,3,0,1,2,3,0,1,2,3,0,1,2,3,0,1,2,3,0,1,2,3,0,1,2,3,0,1,2,3,0,1,2,3,0,1,2,3,0,1,2,3,0,1,2,3,0,1,2,3],"trees":[{"base_weights":[-1.7252098E-1,1.7680346E0,-6.538581E-1,1.8572795E0,2.749315E-1,2.0021944E-1,-6.655596E-1,1.9051071E0,1.0212609E0,1.6821516E0,-1.1567883E-2,5.3573716E-1,-6.2426037E-1,-5.605029E-1,-6.665206E-1,1.9128546E0,-1.1744681E-1,1.2890722E0,-6.0024107E-1,1.9221557E0,6.052632E-1,-4.6333548E-1,2.6907185E-1,2.8423992E-1,1.1635501E0,-2.6139817E-1,-6.4674664E-1,-6.600267E-2,-4.7748014E-1,-6.356638E-1,-6.666627E-2,1.94295E0,1.3805472E0,1.6056339E0,-6.607342E-2,1.0678047E0,1.7861704E0,1.44E-1,-6.3743675E-1,1.6393442E0,1.9781022E-1,-3.3766234E-1,1.5324675E0,-8.411215E-2,-6.0807174E-1,4.922348E-1,-4.5863694E-1,-6.644421E-2,6.0399663E-1,1.3552517E0,-6.52174E-2,-4.3243244E-1,1.0243902E0,-5.3803337E-1,-6.584724E-2,4.77327E-3,-6.344128E-1,-6.4556964E-2,6.415094E-1,1.9805607E-1,1.6964673E-1,1.8160665E-1,1.03473976E-1,1.92E-1,7.826087E-2,4.030515E-2,1.3535464E-1,1.8728982E-1,5.615142E-2,-2.970297E-2,1.5E-1,-3.8805973E-2,-6.500445E-2,1.9534884E-1,8.421053E-2,-6.285714E-2,-9.09091E-3,1.6216217E-1,-4.0000003E-2,-1.5233415E-2,1.1304348E-1,-5.19403E-2,-6.445013E-2,8.644284E-2,-1.13103455E-2,-6.4914995E-3,-6.068477E-2,8.603255E-2,-4.7570333E-2,1.7265226E-1,1.1327963E-1,-2.5149701E-2,-6.277373E-2,-3.529412E-2,1.5E-1,-6.536585E-2,-1.6058395E-2,3.9201997E-2,-5.6493033E-2,-4.3380283E-2,-6.654611E-2,1.5E-1,-4.8275862E-2],"categories":[],"categories_nodes":[],"categories_segments":[],"categories_sizes":[],"default_left":[0,0,0,0,0,0,0,0,0,0,0,0,0,0,0,0,0,0,0,0,0,0,0,0,0,0,0,0,0,0,0,0,0,0,0,0,0,0,0,0,0,0,0,0,0,0,0,0,0,0,0,0,0,0,0,0,0,0,0,0,0,0,0,0,0,0,0,0,0,0,0,0,0,0,0,0,0,0,0,0,0,0,0,0,0,0,0,0,0,0,0,0,0,0,0,0,0,0,0,0,0,0,0],"id":0,"left_children":[1,3,5,7,9,11,13,15,17,19,21,23,25,27,29,31,33,35,37,39,41,43,45,47,49,51,53,-1,55,57,-1,59,61,63,-1,65,67,69,71,73,-1,75,77,79,81,83,85,-1,87,89,-1,91,93,95,-1,97,99,-1,101,-1,-1,-1,-1,-1,-1,-1,-1,-1,-1,-1,-1,-1,-1,-1,-1,-1,-1,-1,-1,-1,-1,-1,-1,-1,-1,-1,-1,-1,-1,-1,-1,-1,-1,-1,-1,-1,-1,-1,-1,-1,-1,-1,-1],"loss_changes":[2.0138266E5,5.7092188E3,1.7265781E3,1.6147188E3,9.748285E2,6.4641534E2,1.6835938E1,5.994844E2,9.5182275E2,1.0454578E2,2.5494455E2,2.6186087E2,5.34671E0,1.2500885E1,3.125E-1,6.076406E2,1.3855467E2,2.0486987E2,8.704529E0,2.04187E0,6.696309E1,4.223958E1,2.0165973E2,3.6045578E2,1.6608997E2,9.486938E0,4.5629883E-1,0E0,6.427536E1,1.047995E1,0E0,3.3089062E2,3.056765E2,7.682358E0,0E0,2.4702759E2,6.0292114E1,9.789861E0,6.7996216E-1,1.3632263E1,0E0,2.7064934E0,7.2817154E0,1.7903992E1,1.4660645E0,2.140793E2,1.6978039E1,0E0,2.4623975E2,3.3527466E1,0E0,1.1496158E0,3.8866568E0,2.8354568E0,0E0,4.644048E1,3.702301E0,0E0,7.1184125E0,0E0,0E0,0E0,0E0,0E0,0E0,0E0,0E0,0E0,0E0,0E0,0E0,0E0,0E0,0E0,0E0,0E0,0E0,0E0,0E0,0E0,0E0,0E0,0E0,0E0,0E0,0E0,0E0,0E0,0E0,0E0,0E0,0E0,0E0,0E0,0E0,0E0,0E0,0E0,0E0,0E0,0E0,0E0,0E0],"parents":[2147483647,0,0,1,1,2,2,3,3,4,4,5,5,6,6,7,7,8,8,9,9,10,10,11,11,12,12,13,13,14,14,15,15,16,16,17,17,18,18,19,19,20,20,21,21,22,22,23,23,24,24,25,25,26,26,28,28,29,29,31,31,32,32,33,33,35,35,36,36,37,37,38,38,39,39,41,41,42,42,43,43,44,44,45,45,46,46,48,48,49,49,51,51,52,52,53,53,55,55,56,56,58,58],"right_children":[2,4,6,8,10,12,14,16,18,20,22,24,26,28,30,32,34,36,38,40,42,44,46,48,50,52,54,-1,56,58,-1,60,62,64,-1,66,68,70,72,74,-1,76,78,80,82,84,86,-1,88,90,-1,92,94,96,-1,98,100,-1,102,-1,-1,-1,-1,-1,-1,-1,-1,-1,-1,-1,-1,-1,-1,-1,-1,-1,-1,-1,-1,-1,-1,-1,-1,-1,-1,-1,-1,-1,-1,-1,-1,-1,-1,-1,-1,-1,-1,-1,-1,-1,-1,-1,-1],"split_conditions":[-1.8623441E0,3.3561945E0,-1.5755032E0,-2.059794E0,-7.274063E0,1.5812944E0,-1.3808805E0,6.9784546E0,1.93221E0,6.4628487E0,9.2360985E-1,1.0931167E-1,1.7079049E0,1.0931167E-1,-1.3021629E0,2.123434E0,-4.652468E0,1.0931167E-1,2.1265118E0,1.8165067E-1,3.1798878E0,4.1448827E0,-2.4475365E0,1.8668243E-1,3.09181E0,-5.4773903E-3,2.0326016E0,-6.600267E-2,1.289298E0,1.4168637E0,-6.666627E-2,2.6545763E0,-3.9219701E0,-6.7738314E0,-6.607342E-2,1.8668243E-1,2.123434E0,2.905257E0,2.297898E0,4.953834E0,1.9781022E-1,2.1265118E0,-8.014989E0,2.0480424E-1,4.738475E0,5.0285616E0,3.6189167E0,-6.644421E-2,2.2352595E0,-1.7710184E0,-6.52174E-2,-2.3905508E-2,1.8668243E-1,-1.2473057E-2,-6.584724E-2,1.8687179E0,1.7079049E0,-6.4556964E-2,1.7215219E0,1.9805607E-1,1.6964673E-1,1.8160665E-1,1.03473976E-1,1.92E-1,7.826087E-2,4.030515E-2,1.3535464E-1,1.8728982E-1,5.615142E-2,-2.970297E-2,1.5E-1,-3.8805973E-2,-6.500445E-2,1.9534884E-1,8.421053E-2,-6.285714E-2,-9.09091E-3,1.6216217E-1,-4.0000003E-2,-1.5233415E-2,1.1304348E-1,-5.19403E-2,-6.445013E-2,8.644284E-2,-1.13103455E-2,-6.4914995E-3,-6.068477E-2,8.603255E-2,-4.7570333E-2,1.7265226E-1,1.1327963E-1,-2.5149701E-2,-6.277373E-2,-3.529412E-2,1.5E-1,-6.536585E-2,-1.6058395E-2,3.9201997E-2,-5.6493033E-2,-4.3380283E-2,-6.654611E-2,1.5E-1,-4.8275862E-2],"split_indices":[2,0,2,2,2,1,2,1,1,0,1,1,1,1,2,0,2,1,1,3,1,0,2,0,0,3,1,0,1,3,0,1,2,2,0,0,0,0,1,0,0,1,2,3,0,0,0,0,0,2,0,3,0,3,0,0,1,0,0,0,0,0,0,0,0,0,0,0,0,0,0,0,0,0,0,0,0,0,0,0,0,0,0,0,0,0,0,0,0,0,0,0,0,0,0,0,0,0,0,0,0,0,0],"split_type":[0,0,0,0,0,0,0,0,0,0,0,0,0,0,0,0,0,0,0,0,0,0,0,0,0,0,0,0,0,0,0,0,0,0,0,0,0,0,0,0,0,0,0,0,0,0,0,0,0,0,0,0,0,0,0,0,0,0,0,0,0,0,0,0,0,0,0,0,0,0,0,0,0,0,0,0,0,0,0,0,0,0,0,0,0,0,0,0,0,0,0,0,0,0,0,0,0,0,0,0,0,0,0],"sum_hessian":[2.1559669E5,4.2848062E4,1.7274862E5,4.0431188E4,2.416875E3,2.3345625E3,1.7041406E5,3.8242125E4,2.1890625E3,4.08E2,2.008875E3,1.6595625E3,6.75E2,1.5500625E3,1.68864E5,3.809625E4,1.45875E2,1.8789375E3,3.10125E2,3.33E2,7.5E1,7.695E2,1.239375E3,1.1859375E3,4.73625E2,4.0125E1,6.34875E2,7.018125E2,8.4825E2,7.94625E2,1.6806938E5,3.6055125E4,2.041125E3,3.45E1,1.11375E2,1.302375E3,5.765625E2,1.4625E1,2.955E2,6E1,2.73E2,3.75E1,3.75E1,2.13E2,5.565E2,9.4875E2,2.90625E2,2.986875E2,8.8725E2,4.28625E2,4.5E1,3.6E1,4.125E0,6.6375E1,5.685E2,2.085E2,6.3975E2,7.89E2,5.625E0,3.127575E4,4.779375E3,9.015E2,1.139625E3,2.4E1,1.05E1,3.9225E2,9.10125E2,5.379375E2,3.8625E1,1.1625E1,3E0,1.575E1,2.7975E2,4.2E1,1.8E1,1.65E1,2.1E1,3.6E1,1.5E0,2.025E2,1.05E1,1.665E2,3.9E2,5.8725E2,3.615E2,7.9875E1,2.1075E2,7.171875E2,1.700625E2,1.580625E2,2.705625E2,1.9875E1,1.6125E1,1.125E0,3E0,5.025E1,1.6125E1,1.243125E2,8.41875E1,8.775E1,5.52E2,3E0,2.625E0],"tree_param":{"num_deleted":"0","num_feature":"5","num_nodes":"103","size_leaf_vector":"1"}},{"base_weights":[4.3089083E-1,-1.8470226E-1,1.0584366E0,-6.451525E-1,1.2339174E-1,1.5582882E0,-4.5854634E-1,-6.6370356E-1,-3.17946E-1,5.797601E-1,-4.3799257E-1,1.0650548E0,1.7741843E0,-6.1423534E-1,5.894779E-1,-6.666502E-2,-5.1314145E-1,4.2515078E-1,-6.2275404E-1,1.074059E0,-2.8323445E-1,-2.1576029E-1,-5.4048395E-1,1.3141292E0,3.909084E-2,-6.648775E-2,1.79049E0,-6.602662E-1,-1.8036252E-1,1.4319776E0,-1.9653098E-1,-2.9815996E-1,-6.6523954E-2,1.3945214E0,-3.8560066E-2,-6.429955E-1,-3.521946E-1,1.8364035E0,9.230659E-1,-6.436445E-1,1.563939E-1,-6.625036E-1,-9.558735E-2,-6.64952E-2,-5.017053E-1,1.4707985E0,9.1723263E-1,-1.9833025E-1,5.690673E-1,1.9075832E0,1.5573264E0,-6.6547257E-1,-4.9617952E-1,1.6340656E0,-5.983428E-1,1.0470821E0,1.8728718E0,1.6139984E-1,-6.1403644E-1,3.2E-4,-3.370787E-2,1.6265912E-1,1.23098455E-1,3.2905098E-2,-2.1513944E-2,-6.629033E-2,-5.6129035E-2,-4.88665E-2,3.448276E-2,9.361147E-2,1.8592669E-1,1.10890485E-1,7.430011E-2,-6.660884E-2,-4.808144E-2,1.0753037E-1,-2.7412428E-2,-6.660412E-2,-5.8793325E-2,-2.100026E-3,-4.5084193E-2,-5.597004E-2,-4.2567402E-2,1.9390295E-1,1.4078648E-1,7.899184E-2,1.1289562E-1,6.450867E-2,-2.572225E-2,3.603051E-2,7.6154165E-2,1.731558E-1,1.943605E-1,1.6006248E-1,8.7941915E-2,-6.6663295E-2,-6.162078E-2,1.9442509E-1,-6.38585E-2,6.2354464E-2,1.9343238E-1,-4.9627793E-4,-6.330972E-2,1.8788338E-1,8.556604E-2,1.6558751E-1,1.9899155E-1,-8.576534E-3,1.9073685E-1,-4.0335495E-2,-6.656524E-2],"categories":[],"categories_nodes":[],"categories_segments":[],"categories_sizes":[],"default_left":[0,0,0,0,0,0,0,0,0,0,0,0,0,0,0,0,0,0,0,0,0,0,0,0,0,0,0,0,0,0,0,0,0,0,0,0,0,0,0,0,0,0,0,0,0,0,0,0,0,0,0,0,0,0,0,0,0,0,0,0,0,0,0,0,0,0,0,0,0,0,0,0,0,0,0,0,0,0,0,0,0,0,0,0,0,0,0,0,0,0,0,0,0,0,0,0,0,0,0,0,0,0,0,0,0,0,0,0,0,0,0],"id":1,"left_children":[1,3,5,7,9,11,13,15,17,19,21,23,25,27,29,-1,31,33,35,37,39,41,43,45,47,-1,49,51,53,55,57,59,-1,61,63,65,67,69,71,73,75,77,79,-1,81,83,85,87,89,91,93,95,97,99,101,103,105,107,109,-1,-1,-1,-1,-1,-1,-1,-1,-1,-1,-1,-1,-1,-1,-1,-1,-1,-1,-1,-1,-1,-1,-1,-1,-1,-1,-1,-1,-1,-1,-1,-1,-1,-1,-1,-1,-1,-1,-1,-1,-1,-1,-1,-1,-1,-1,-1,-1,-1,-1,-1,-1],"loss_changes":[8.350986E4,1.5480855E4,8.117044E4,2.6533203E2,1.675053E4,8.5720625E3,4.3293364E3,1.802539E1,5.323319E2,1.5384228E4,6.676465E2,6.2647695E3,2.2283906E3,4.612246E2,2.2730352E3,0E0,2.5927567E1,3.0746082E2,8.8984375E0,2.6377734E3,2.081206E3,4.968082E2,9.6506836E1,1.225293E3,6.028427E2,0E0,1.5158281E3,1.7510742E1,1.6823871E3,2.7916528E2,2.6556647E2,3.9052162E0,0E0,6.3969116E0,3.0161806E1,2.1474E0,1.1410841E1,7.6268555E1,6.397041E2,2.6057129E1,2.3414004E3,1.2591553E-1,1.9327252E2,0E0,6.723291E1,4.14E2,1.4967285E2,1.6452019E2,5.9284393E1,2.3140625E2,5.446289E2,7.4609375E-1,2.2581155E2,1.2482568E2,3.7172974E1,1.3957654E2,1.6283691E1,4.1325778E2,8.650665E0,0E0,0E0,0E0,0E0,0E0,0E0,0E0,0E0,0E0,0E0,0E0,0E0,0E0,0E0,0E0,0E0,0E0,0E0,0E0,0E0,0E0,0E0,0E0,0E0,0E0,0E0,0E0,0E0,0E0,0E0,0E0,0E0,0E0,0E0,0E0,0E0,0E0,0E0,0E0,0E0,0E0,0E0,0E0,0E0,0E0,0E0,0E0,0E0,0E0,0E0,0E0,0E0],"parents":[2147483647,0,0,1,1,2,2,3,3,4,4,5,5,6,6,7,7,8,8,9,9,10,10,11,11,12,12,13,13,14,14,16,16,17,17,18,18,19,19,20,20,21,21,22,22,23,23,24,24,26,26,27,27,28,28,29,29,30,30,31,31,33,33,34,34,35,35,36,36,37,37,38,38,39,39,40,40,41,41,42,42,44,44,45,45,46,46,47,47,48,48,49,49,50,50,51,51,52,52,53,53,54,54,55,55,56,56,57,57,58,58],"right_children":[2,4,6,8,10,12,14,16,18,20,22,24,26,28,30,-1,32,34,36,38,40,42,44,46,48,-1,50,52,54,56,58,60,-1,62,64,66,68,70,72,74,76,78,80,-1,82,84,86,88,90,92,94,96,98,100,102,104,106,108,110,-1,-1,-1,-1,-1,-1,-1,-1,-1,-1,-1,-1,-1,-1,-1,-1,-1,-1,-1,-1,-1,-1,-1,-1,-1,-1,-1,-1,-1,-1,-1,-1,-1,-1,-1,-1,-1,-1,-1,-1,-1,-1,-1,-1,-1,-1,-1,-1,-1,-1,-1,-1],"split_conditions":[2.9013065E-1,-1.7710184E0,9.003421E-1,-2.001367E0,-1.7301926E-2,3.09133E-1,9.1642305E-2,-2.059794E0,1.8668243E-1,5.8859473E-1,-5.4773903E-3,-1.7198745E-2,-2.534055E0,-1.6368483E0,2.001873E0,-6.666502E-2,1.8668243E-1,-2.553577E-2,2.5981987E-1,-2.7434299E-2,-1.9220753E0,-2.3179572E0,-2.3170338E0,-2.3018152E-2,3.0502132E-1,-6.648775E-2,-2.5597677E-2,-2.0466282E0,2.2352595E0,3.0897546E-1,3.2563612E0,-2.7558116E-2,-6.6523954E-2,-1.9569721E0,-2.1697436E-2,-3.2520533E-1,-1.8623441E0,-1.6368483E0,-2.5308771E-2,-2.4887733E0,1.3704177E0,-2.4887733E0,1.7215219E0,-6.64952E-2,1.8668243E-1,-2.7496208E-2,3.0603936E-1,2.6293302E-1,3.0723205E-1,3.1123713E-1,-1.5565159E-3,-2.2743096E0,1.3704177E0,-1.3187008E0,2.6100433E0,2.5141865E-1,3.1152824E-1,3.1102198E-1,3.9700208E0,3.2E-4,-3.370787E-2,1.6265912E-1,1.23098455E-1,3.2905098E-2,-2.1513944E-2,-6.629033E-2,-5.6129035E-2,-4.88665E-2,3.448276E-2,9.361147E-2,1.8592669E-1,1.10890485E-1,7.430011E-2,-6.660884E-2,-4.808144E-2,1.0753037E-1,-2.7412428E-2,-6.660412E-2,-5.8793325E-2,-2.100026E-3,-4.5084193E-2,-5.597004E-2,-4.2567402E-2,1.9390295E-1,1.4078648E-1,7.899184E-2,1.1289562E-1,6.450867E-2,-2.572225E-2,3.603051E-2,7.6154165E-2,1.731558E-1,1.943605E-1,1.6006248E-1,8.7941915E-2,-6.6663295E-2,-6.162078E-2,1.9442509E-1,-6.38585E-2,6.2354464E-2,1.9343238E-1,-4.9627793E-4,-6.330972E-2,1.8788338E-1,8.556604E-2,1.6558751E-1,1.9899155E-1,-8.576534E-3,1.9073685E-1,-4.0335495E-2,-6.656524E-2],"split_indices":[2,2,0,2,3,2,4,2,0,0,3,3,4,4,0,0,0,3,4,3,4,4,4,3,2,0,3,4,0,2,0,3,0,2,3,4,2,4,3,4,0,4,0,0,0,3,2,4,2,2,3,4,0,4,0,4,2,2,0,0,0,0,0,0,0,0,0,0,0,0,0,0,0,0,0,0,0,0,0,0,0,0,0,0,0,0,0,0,0,0,0,0,0,0,0,0,0,0,0,0,0,0,0,0,0,0,0,0,0,0,0],"split_type":[0,0,0,0,0,0,0,0,0,0,0,0,0,0,0,0,0,0,0,0,0,0,0,0,0,0,0,0,0,0,0,0,0,0,0,0,0,0,0,0,0,0,0,0,0,0,0,0,0,0,0,0,0,0,0,0,0,0,0,0,0,0,0,0,0,0,0,0,0,0,0,0,0,0,0,0,0,0,0,0,0,0,0,0,0,0,0,0,0,0,0,0,0,0,0,0,0,0,0,0,0,0,0,0,0,0,0,0,0,0,0],"sum_hessian":[2.1617006E5,1.09124625E5,1.0704544E5,4.3745438E4,6.5379188E4,8.051531E4,2.6530125E4,4.1397375E4,2.3480625E3,3.6062625E4,2.9316562E4,2.4514875E4,5.6000438E4,2.3099062E4,3.4310625E3,4.0599375E4,7.98E2,6.82875E2,1.6651875E3,2.2929188E4,1.31334375E4,9.2540625E3,2.00625E4,1.972575E4,4.789125E3,3.71625E2,5.5628812E4,2.0883E4,2.2160625E3,1.655625E3,1.7754375E3,3.31875E2,4.66125E2,2.203125E2,4.625625E2,1.548E3,1.171875E2,3.7888125E3,1.9140375E4,7.2166875E3,5.91675E3,1.9606875E3,7.293375E3,4.7619375E3,1.53005625E4,1.41410625E4,5.5846875E3,3.307875E3,1.48125E3,3.7026938E4,1.8601875E4,2.0237812E4,6.451875E2,4.14375E2,1.8016875E3,8.8575E2,7.69875E2,9.5625E2,8.191875E2,3.80625E1,2.938125E2,8.7375E1,1.329375E2,1.498125E2,3.1275E2,1.239E3,3.09E2,9.825E1,1.89375E1,9.4875E1,3.6939375E3,9.416625E3,9.72375E3,6.33975E3,8.769375E2,1.8871875E3,4.0295625E3,1.8643125E3,9.6375E1,6.0286875E3,1.2646875E3,8.6761875E3,6.624375E3,1.6719375E3,1.2469125E4,3.4905E3,2.0941875E3,2.1525E2,3.092625E3,7.119375E2,7.693125E2,6.2983125E3,3.0728625E4,1.7483812E4,1.1180625E3,1.9759875E4,4.779375E2,3.4875E1,6.103125E2,9.5625E1,3.1875E2,9.975E1,1.7019375E3,1.640625E2,7.216875E2,2.750625E2,4.948125E2,8.385E2,1.1775E2,1.629375E2,6.5625E2],"tree_param":{"num_deleted":"0","num_feature":"5","num_nodes":"111","size_leaf_vector":"1"}},{"base_weights":[-1.5311739E-1,1.7523892E0,-5.6942385E-1,-1.7265977E-1,1.9398688E0,-6.328498E-1,8.061556E-1,-5.4027355E-1,1.0317361E0,1.1877214E0,1.9728202E0,4.6799425E-2,-6.6291213E-1,3.180712E-1,1.9301772E0,-7.27729E-2,-6.234057E-1,-8.181818E-2,1.4491018E0,2.0924975E-1,1.8663048E0,1.7385949E0,1.9874161E0,-5.7678074E-1,1.0705554E0,-6.662369E-1,-4.372547E-1,1.0697675E0,-3.365903E-1,1.9616014E0,1.277622E0,-3.323782E-1,1.7227722E0,-6.545454E-1,-3.042394E-1,-4.417178E-1,9.310345E-1,1.78125E0,3.5636362E-1,8.618421E-1,-4.416223E-1,1.9656652E0,1.3648648E0,1.8478967E0,-2.732769E-1,1.9231161E0,1.9957662E-1,-6.199317E-1,1.5077384E-1,-6.657219E-2,1.679423E0,-5.5874264E-1,-6.6666245E-2,7.624779E-1,-6.4837563E-1,-4.044285E-1,1.3323069E0,-4.4228983E-1,6.278767E-1,1.7154734E0,1.994201E-1,-6.371191E-2,1.744089E0,-5.9959758E-2,3.251232E-2,1.1304348E-1,1.85E-1,-6.642674E-2,-4.3956045E-2,3.7931036E-2,-5.783972E-2,-6.589595E-2,-1.9354839E-2,-7.1428576E-3,1.8064515E-1,1.2422907E-1,1.9582713E-1,-1.9653179E-2,1.2692307E-1,5.890603E-3,1.1893457E-1,-6.4234525E-2,-1.0065646E-2,1.9909228E-1,1.6917431E-1,4.6728972E-2,1.8534032E-1,-1.1764706E-2,1.8558031E-1,4.0585008E-2,-6.0017813E-2,1.7897835E-1,1.9481741E-1,-6.483168E-2,-1.6612297E-2,-4.3125905E-2,1.427663E-1,6.2173422E-2,1.7730689E-1,-6.457084E-2,1.0570343E-1,-4.7346253E-2,1.6500609E-1,-3.6331978E-2,-6.6420786E-2,2.7737228E-2,-5.5077046E-2,7.0643164E-2,1.6057467E-1,-6.502434E-2,-2.5042316E-2,1.377916E-1,-3.180488E-2,1.9236565E-1,-6.373627E-2,5.954198E-2,1.9731544E-1],"categories":[],"categories_nodes":[],"categories_segments":[],"categories_sizes":[],"default_left":[0,0,0,0,0,0,0,0,0,0,0,0,0,0,0,0,0,0,0,0,0,0,0,0,0,0,0,0,0,0,0,0,0,0,0,0,0,0,0,0,0,0,0,0,0,0,0,0,0,0,0,0,0,0,0,0,0,0,0,0,0,0,0,0,0,0,0,0,0,0,0,0,0,0,0,0,0,0,0,0,0,0,0,0,0,0,0,0,0,0,0,0,0,0,0,0,0,0,0,0,0,0,0,0,0,0,0,0,0,0,0,0,0,0,0,0,0],"id":2,"left_children":[1,3,5,7,9,11,13,15,17,19,21,23,25,27,29,31,33,35,37,39,41,43,45,47,49,51,53,55,57,59,61,63,65,67,69,71,73,75,77,79,81,83,85,87,89,91,-1,93,95,-1,97,99,-1,101,103,105,107,109,111,113,-1,-1,115,-1,-1,-1,-1,-1,-1,-1,-1,-1,-1,-1,-1,-1,-1,-1,-1,-1,-1,-1,-1,-1,-1,-1,-1,-1,-1,-1,-1,-1,-1,-1,-1,-1,-1,-1,-1,-1,-1,-1,-1,-1,-1,-1,-1,-1,-1,-1,-1,-1,-1,-1,-1,-1,-1],"loss_changes":[1.7117227E5,1.3963758E4,1.5451113E4,1.521191E3,8.714531E2,3.4588125E3,4.2818247E3,1.02245544E2,3.735528E2,9.837859E2,1.12015625E2,4.5788994E3,1.2134375E2,2.6792654E3,4.595215E1,1.8632666E2,2.2009033E1,8.060682E1,2.1151001E2,2.586842E2,4.09187E1,4.3794336E2,1.32265625E1,1.4003528E2,2.871381E3,6.9375E0,5.974324E2,9.814053E2,2.969785E2,1.4654297E1,1.0064313E2,6.1513233E1,1.714447E0,3.9612427E0,3.7793198E1,8.660236E0,5.102829E1,4.0309692E1,6.964845E1,7.987114E1,2.0817997E1,1.6694336E0,6.403192E1,2.9541016E1,2.31936E1,8.8125E0,0E0,5.4098877E1,1.8669226E2,0E0,1.9802783E2,9.0086624E1,0E0,3.8815918E2,8.805725E0,3.8454292E1,3.6706104E2,1.04515625E2,2.0468018E2,1.3378369E2,0E0,0E0,2.2473053E1,0E0,0E0,0E0,0E0,0E0,0E0,0E0,0E0,0E0,0E0,0E0,0E0,0E0,0E0,0E0,0E0,0E0,0E0,0E0,0E0,0E0,0E0,0E0,0E0,0E0,0E0,0E0,0E0,0E0,0E0,0E0,0E0,0E0,0E0,0E0,0E0,0E0,0E0,0E0,0E0,0E0,0E0,0E0,0E0,0E0,0E0,0E0,0E0,0E0,0E0,0E0,0E0,0E0,0E0],"parents":[2147483647,0,0,1,1,2,2,3,3,4,4,5,5,6,6,7,7,8,8,9,9,10,10,11,11,12,12,13,13,14,14,15,15,16,16,17,17,18,18,19,19,20,20,21,21,22,22,23,23,24,24,25,25,26,26,27,27,28,28,29,29,30,30,31,31,32,32,33,33,34,34,35,35,36,36,37,37,38,38,39,39,40,40,41,41,42,42,43,43,44,44,45,45,47,47,48,48,50,50,51,51,53,53,54,54,55,55,56,56,57,57,58,58,59,59,62,62],"right_children":[2,4,6,8,10,12,14,16,18,20,22,24,26,28,30,32,34,36,38,40,42,44,46,48,50,52,54,56,58,60,62,64,66,68,70,72,74,76,78,80,82,84,86,88,90,92,-1,94,96,-1,98,100,-1,102,104,106,108,110,112,114,-1,-1,116,-1,-1,-1,-1,-1,-1,-1,-1,-1,-1,-1,-1,-1,-1,-1,-1,-1,-1,-1,-1,-1,-1,-1,-1,-1,-1,-1,-1,-1,-1,-1,-1,-1,-1,-1,-1,-1,-1,-1,-1,-1,-1,-1,-1,-1,-1,-1,-1,-1,-1,-1,-1,-1,-1],"split_conditions":[-2.317004E0,-3.5947092E0,3.032351E0,3.5784192E0,-2.059794E0,-1.3721293E0,3.0879697E-1,-4.6727104E0,-7.274063E0,2.123434E0,9.003421E-1,-1.3808805E0,2.3387935E0,-1.0483058E-1,2.5141865E-1,-4.652468E0,2.6898975E0,6.4628487E0,-4.2636294E0,-2.805027E0,-2.764811E0,-2.4887733E0,-3.1877148E-1,2.2352595E0,9.003421E-1,-1.2019261E0,-6.787494E-1,-2.9307058E0,5.193113E0,3.6965518E0,3.9700208E0,-5.657538E0,-4.2502046E0,-3.9219701E0,-4.130139E0,5.099494E0,-8.014989E0,-6.3463955E0,-4.83428E0,1.1550583E0,1.3704177E0,-3.093202E0,3.2563612E0,-2.001367E0,-2.4101202E0,1.1550583E0,1.9957662E-1,-1.6788064E0,-2.3304465E0,-6.657219E-2,1.1550583E0,2.123434E0,-6.6666245E-2,-1.3808805E0,-4.9633914E-1,-2.0876582E0,3.4035573E0,3.7338092E0,2.3033091E-1,-3.5162427E-2,1.994201E-1,-6.371191E-2,3.1165907E-1,-5.9959758E-2,3.251232E-2,1.1304348E-1,1.85E-1,-6.642674E-2,-4.3956045E-2,3.7931036E-2,-5.783972E-2,-6.589595E-2,-1.9354839E-2,-7.1428576E-3,1.8064515E-1,1.2422907E-1,1.9582713E-1,-1.9653179E-2,1.2692307E-1,5.890603E-3,1.1893457E-1,-6.4234525E-2,-1.0065646E-2,1.9909228E-1,1.6917431E-1,4.6728972E-2,1.8534032E-1,-1.1764706E-2,1.8558031E-1,4.0585008E-2,-6.0017813E-2,1.7897835E-1,1.9481741E-1,-6.483168E-2,-1.6612297E-2,-4.3125905E-2,1.427663E-1,6.2173422E-2,1.7730689E-1,-6.457084E-2,1.0570343E-1,-4.7346253E-2,1.6500609E-1,-3.6331978E-2,-6.6420786E-2,2.7737228E-2,-5.5077046E-2,7.0643164E-2,1.6057467E-1,-6.502434E-2,-2.5042316E-2,1.377916E-1,-3.180488E-2,1.9236565E-1,-6.373627E-2,5.954198E-2,1.9731544E-1],"split_indices":[4,2,0,0,2,4,2,4,2,0,0,2,0,4,4,2,0,0,4,4,4,4,2,0,0,4,4,2,0,0,0,2,2,2,4,0,2,2,2,0,0,4,0,2,4,0,0,2,2,0,0,0,0,2,4,4,0,0,3,4,0,0,2,0,0,0,0,0,0,0,0,0,0,0,0,0,0,0,0,0,0,0,0,0,0,0,0,0,0,0,0,0,0,0,0,0,0,0,0,0,0,0,0,0,0,0,0,0,0,0,0,0,0,0,0,0,0],"split_type":[0,0,0,0,0,0,0,0,0,0,0,0,0,0,0,0,0,0,0,0,0,0,0,0,0,0,0,0,0,0,0,0,0,0,0,0,0,0,0,0,0,0,0,0,0,0,0,0,0,0,0,0,0,0,0,0,0,0,0,0,0,0,0,0,0,0,0,0,0,0,0,0,0,0,0,0,0,0,0,0,0,0,0,0,0,0,0,0,0,0,0,0,0,0,0,0,0,0,0,0,0,0,0,0,0,0,0,0,0,0,0,0,0,0,0,0,0],"sum_hessian":[2.1577706E5,3.868875E4,1.7708831E5,3.4335E3,3.525525E4,1.6928344E5,7.804875E3,2.631E3,8.025E2,1.48125E3,3.3774E4,7.1705625E3,1.6211288E5,5.44275E3,2.362125E3,3.975E2,2.2335E3,2.19E2,5.835E2,6.07125E2,8.74125E2,1.98825E3,3.178575E4,4.4565E3,2.7140625E3,1.5975712E5,2.35575E3,2.5333125E3,2.9094375E3,2.2516875E3,1.104375E2,3.48E2,4.95E1,2.034E3,1.995E2,1.62E2,5.7E1,4.47E2,1.365E2,3.03E2,3.04125E2,7.27125E2,1.47E2,1.885875E3,1.02375E2,3.679875E3,2.8105875E4,4.207125E3,2.49375E2,7.04625E2,2.0094375E3,6.3525E2,1.5912188E5,3.52125E2,2.003625E3,3.82875E2,2.1504375E3,2.6225625E3,2.86875E2,2.69625E2,1.9820625E3,2.15625E1,8.8875E1,2.475E2,1.005E2,1.05E1,3.9E1,1.944E3,9E1,5.7E1,1.425E2,8.55E1,7.65E1,2.7E1,3E1,1.125E2,3.345E2,8.55E1,5.1E1,8.8125E1,2.14875E2,1.90875E2,1.1325E2,6.6E2,6.7125E1,5.25E1,9.45E1,7.5E0,1.878375E3,3.31875E1,6.91875E1,5.93625E2,3.08625E3,3.9590625E3,2.480625E2,1.7175E2,7.7625E1,1.640625E2,1.845375E3,6.03375E2,3.1875E1,1.47375E2,2.0475E2,1.066875E2,1.8969375E3,6.75E1,3.15375E2,6.549375E2,1.4955E3,1.257375E3,1.3651875E3,1.5975E2,1.27125E2,2.47875E2,2.175E1,1.5375E1,7.35E1],"tree_param":{"num_deleted":"0","num_feature":"5","num_nodes":"117","size_leaf_vector":"1"}},{"base_weights":[-1.0533757E-1,-6.465661E-1,1.342689E0,-6.6047037E-1,2.1691103E-1,-4.987971E-1,1.8263044E0,-6.6640127E-1,-4.8590684E-1,-6.5286386E-1,7.242599E-1,-6.310488E-1,1.437736E-1,1.1972065E-2,1.9517287E0,-6.6666216E-2,-6.5073305E-1,-6.609593E-1,-1.697814E-1,-6.659248E-2,-3.726708E-2,1.3246104E0,-6.6526376E-2,-6.429861E-1,6.9793105E-1,-5.518987E-1,1.1520846E0,-5.731825E-1,6.3197535E-1,1.1447242E0,1.9792151E0,-6.571718E-2,-5.771651E-1,-6.66445E-2,-5.9617656E-1,4.4235802E-1,-6.660011E-2,-6.2068965E-2,1.245283E0,-3.7089798E-1,1.8108761E0,-6.651918E-1,-5.109136E-1,-5.240642E-1,1.9554317E-1,-6.5583414E-1,-2.7988338E-1,-6.004963E-1,1.385434E0,-6.519945E-1,-2.081448E-1,1.0512166E-1,1.5523161E0,1.8078395E0,-1.4329581E-1,1.3152473E0,1.9930564E0,-6.63144E-2,2.5230769E-2,-6.638545E-2,-1.7391304E-3,-6.1026104E-2,9.876255E-2,1.6363637E-1,-3.529412E-2,-6.612245E-2,-8.152994E-3,1.8192726E-1,1.01123594E-1,-6.65886E-2,-5.3266335E-2,-6.478443E-2,7.802691E-2,-6.4935066E-2,5.4054055E-3,-6.658416E-2,-5.534407E-2,-5.590666E-2,5.4964032E-2,3.448276E-2,-6.2929936E-2,8.099174E-2,1.8765052E-1,-6.542685E-2,-2.857143E-2,-5.994695E-2,6.253521E-2,-3.7630107E-2,3.4794908E-2,1.6276336E-1,-2.3463687E-2,-4.5822103E-2,1.9223732E-1,1.5851185E-1,-6.490591E-2,1.7571324E-1,-3.782275E-2,1.4495413E-1,1.9966273E-1],"categories":[],"categories_nodes":[],"categories_segments":[],"categories_sizes":[],"default_left":[0,0,0,0,0,0,0,0,0,0,0,0,0,0,0,0,0,0,0,0,0,0,0,0,0,0,0,0,0,0,0,0,0,0,0,0,0,0,0,0,0,0,0,0,0,0,0,0,0,0,0,0,0,0,0,0,0,0,0,0,0,0,0,0,0,0,0,0,0,0,0,0,0,0,0,0,0,0,0,0,0,0,0,0,0,0,0,0,0,0,0,0,0,0,0,0,0,0,0],"id":3,"left_children":[1,3,5,7,9,11,13,15,17,19,21,23,25,27,29,-1,31,33,35,-1,37,39,-1,41,43,45,47,49,51,53,55,-1,57,-1,59,61,-1,-1,63,65,67,69,71,73,-1,75,77,79,81,83,85,87,89,91,93,95,97,-1,-1,-1,-1,-1,-1,-1,-1,-1,-1,-1,-1,-1,-1,-1,-1,-1,-1,-1,-1,-1,-1,-1,-1,-1,-1,-1,-1,-1,-1,-1,-1,-1,-1,-1,-1,-1,-1,-1,-1,-1,-1],"loss_changes":[1.6907992E5,1.8856172E3,5.2275867E4,1.596875E2,1.0990376E3,1.0376992E3,1.0579156E4,1.796875E-1,2.8113208E2,7.353607E0,1.3129231E3,1.6109229E2,1.4630798E3,1.0912952E3,9.6228125E2,0E0,7.9992676E-1,7.6501465E-1,5.508895E2,0E0,1.5831842E1,9.0645276E2,0E0,2.9094238E1,1.4028458E2,3.471472E1,3.4906458E2,4.4384796E1,7.080112E2,1.2255806E3,3.838125E2,0E0,1.5041397E1,0E0,1.0361427E1,4.6672913E2,0E0,0E0,4.7183933E0,2.0586594E1,3.8935547E0,4.3554688E-1,2.5667026E2,3.4212217E0,0E0,5.4592896E-1,7.974234E1,2.9602432E0,2.1093958E2,8.727417E-1,9.0478775E1,1.0883578E2,7.193262E1,2.46698E2,4.2806012E2,6.454369E2,7.7046875E1,0E0,0E0,0E0,0E0,0E0,0E0,0E0,0E0,0E0,0E0,0E0,0E0,0E0,0E0,0E0,0E0,0E0,0E0,0E0,0E0,0E0,0E0,0E0,0E0,0E0,0E0,0E0,0E0,0E0,0E0,0E0,0E0,0E0,0E0,0E0,0E0,0E0,0E0,0E0,0E0,0E0,0E0],"parents":[2147483647,0,0,1,1,2,2,3,3,4,4,5,5,6,6,7,7,8,8,9,9,10,10,11,11,12,12,13,13,14,14,16,16,17,17,18,18,20,20,21,21,23,23,24,24,25,25,26,26,27,27,28,28,29,29,30,30,32,32,34,34,35,35,38,38,39,39,40,40,41,41,42,42,43,43,45,45,46,46,47,47,48,48,49,49,50,50,51,51,52,52,53,53,54,54,55,55,56,56],"right_children":[2,4,6,8,10,12,14,16,18,20,22,24,26,28,30,-1,32,34,36,-1,38,40,-1,42,44,46,48,50,52,54,56,-1,58,-1,60,62,-1,-1,64,66,68,70,72,74,-1,76,78,80,82,84,86,88,90,92,94,96,98,-1,-1,-1,-1,-1,-1,-1,-1,-1,-1,-1,-1,-1,-1,-1,-1,-1,-1,-1,-1,-1,-1,-1,-1,-1,-1,-1,-1,-1,-1,-1,-1,-1,-1,-1,-1,-1,-1,-1,-1,-1,-1],"split_conditions":[1.289298E0,1.1179117E0,-2.059794E0,9.2360985E-1,-1.4642705E0,-3.044698E0,-9.655005E-1,6.993049E-1,-1.3021629E0,-1.5755032E0,2.6293278E-1,6.9784546E0,2.8329754E0,-3.3978367E0,1.4426084E0,-6.6666216E-2,8.092612E-2,-1.5755032E0,2.6293254E-1,-6.659248E-2,-5.5004036E-1,-6.787494E-1,-6.6526376E-2,-3.9219701E0,-4.652468E0,-2.3304465E0,-2.9404914E0,-3.9520662E0,2.7759051E0,2.6293302E-1,-1.8461771E-1,-6.571718E-2,2.296169E-1,-6.66445E-2,-2.6852915E-1,-6.787494E-1,-6.660011E-2,-6.2068965E-2,2.628325E-1,-2.3670015E0,2.6291147E-1,6.3672423E0,4.5736423E0,-6.7738314E0,1.9554317E-1,-2.3906348E0,2.3765714E0,-2.3637239E-2,-2.5631742E0,6.3672423E0,3.5650425E0,-2.3170338E0,4.013403E-1,-7.311168E-1,-3.1877148E-1,1.5519416E-1,-1.8623441E0,-6.63144E-2,2.5230769E-2,-6.638545E-2,-1.7391304E-3,-6.1026104E-2,9.876255E-2,1.6363637E-1,-3.529412E-2,-6.612245E-2,-8.152994E-3,1.8192726E-1,1.01123594E-1,-6.65886E-2,-5.3266335E-2,-6.478443E-2,7.802691E-2,-6.4935066E-2,5.4054055E-3,-6.658416E-2,-5.534407E-2,-5.590666E-2,5.4964032E-2,3.448276E-2,-6.2929936E-2,8.099174E-2,1.8765052E-1,-6.542685E-2,-2.857143E-2,-5.994695E-2,6.253521E-2,-3.7630107E-2,3.4794908E-2,1.6276336E-1,-2.3463687E-2,-4.5822103E-2,1.9223732E-1,1.5851185E-1,-6.490591E-2,1.7571324E-1,-3.782275E-2,1.4495413E-1,1.9966273E-1],"split_indices":[1,1,2,1,2,2,4,1,2,2,4,1,1,4,1,0,3,2,4,0,4,4,0,2,2,2,4,4,1,4,4,0,4,0,4,4,0,0,4,4,4,1,1,2,0,2,1,3,2,1,1,4,3,4,2,2,2,0,0,0,0,0,0,0,0,0,0,0,0,0,0,0,0,0,0,0,0,0,0,0,0,0,0,0,0,0,0,0,0,0,0,0,0,0,0,0,0,0,0],"split_type":[0,0,0,0,0,0,0,0,0,0,0,0,0,0,0,0,0,0,0,0,0,0,0,0,0,0,0,0,0,0,0,0,0,0,0,0,0,0,0,0,0,0,0,0,0,0,0,0,0,0,0,0,0,0,0,0,0,0,0,0,0,0,0,0,0,0,0,0,0,0,0,0,0,0,0,0,0,0,0,0,0,0,0,0,0,0,0,0,0,0,0,0,0,0,0,0,0,0,0],"sum_hessian":[2.1573994E5,1.5704269E5,5.869725E4,1.5455419E5,2.4885E3,1.2208875E4,4.6488375E4,1.4947294E5,5.08125E3,9.166875E2,1.5718125E3,1.0125E4,2.083875E3,3.006E3,4.3482375E4,1.4698444E5,2.4885E3,3.269625E3,1.811625E3,8.975625E2,1.9125E1,1.097625E3,4.741875E2,1.0035375E4,8.9625E1,1.233375E3,8.505E2,1.5465E3,1.4595E3,1.433625E3,4.204875E4,2.2809375E3,2.075625E2,3.0058125E3,2.638125E2,8.11125E2,1.0005E3,1.35E1,5.625E0,2.446875E2,8.529375E2,8.5875E3,1.447875E3,4.575E1,4.3875E1,8.91375E2,3.42E2,9.975E1,7.5075E2,1.27125E3,2.7525E2,9.28875E2,5.30625E2,9.46125E2,4.875E2,8.60625E2,4.1188125E4,1.8825E2,1.93125E1,2.360625E2,2.775E1,2.7675E2,5.34375E2,4.5E0,1.125E0,1.215E2,1.231875E2,8.428125E2,1.0125E1,8.53875E3,4.875E1,1.3095E3,1.38375E2,3.75E1,8.25E0,8.07E2,8.4375E1,2.56125E2,8.5875E1,2.625E0,9.7125E1,3.46875E2,4.03875E2,1.262625E3,8.625E0,1.875E2,8.775E1,3.1125E2,6.17625E2,5.0925E2,2.1375E1,4.5375E1,9.0075E2,1.09875E2,3.77625E2,6.825E2,1.78125E2,2.715E2,4.0916625E4],"tree_param":{"num_deleted":"0","num_feature":"5","num_nodes":"99","size_leaf_vector":"1"}},{"base_weights":[-1.633705E-1,1.4621731E0,-6.4354634E-1,1.5295292E0,1.957871E-1,4.39229E-2,-6.5034E-1,1.57226E0,6.988399E-1,1.4119755E0,-8.16603E-2,3.317123E-1,-6.163535E-1,-5.2670354E-1,-6.514706E-1,1.2132263E0,1.6034771E0,9.26151E-1,-6.019865E-1,1.558489E0,5.5769914E-1,-2.9021254E-1,9.500097E-1,-6.703923E-2,5.6293267E-1,-4.3234584E-1,-6.473225E-2,-4.0209085E-1,-6.2858075E-1,-6.088133E-1,-6.5166634E-1,1.5871404E0,1.8193449E-1,1.642076E0,1.3522654E0,-6.101524E-1,1.191613E0,-2.5645626E-1,-6.4888835E-2,1.1361048E0,1.6261954E0,1.3623245E0,-5.028677E-1,1.31547E-1,-5.104312E-1,1.6161171E0,3.130018E-1,1.0025405E0,-3.5308585E-1,1.343238E-1,-5.7852966E-1,6.0735226E-1,-5.815835E-1,-5.506654E-1,-6.531111E-2,-5.668714E-1,-6.4955816E-2,-6.532794E-2,-6.468048E-2,1.2046897E-1,1.6327907E-1,1.0999981E-1,-2.1296559E-2,1.6457804E-1,1.4347647E-1,1.5855189E-1,-2.3460502E-2,-6.374258E-2,7.9598255E-2,4.549564E-2,1.567854E-1,5.3865504E-2,-6.2964335E-2,-6.034718E-2,1.3715366E-1,7.303834E-2,1.6377597E-1,7.521258E-2,1.645378E-1,-6.3429825E-2,1.2211952E-1,-4.3823127E-2,1.4132854E-1,-8.013413E-3,-5.895081E-2,1.7430244E-1,3.5461754E-2,1.3105102E-1,-2.5526166E-2,1.2621935E-1,-6.0162105E-2,-5.968047E-2,1.1055397E-1,-2.9453874E-2,1.4281824E-1,-3.9719433E-2,-6.432312E-2,-6.309175E-2,1.0006564E-1,-6.0034513E-2,-1.6048267E-2,-3.8049784E-2,-6.437542E-2,-3.848816E-2,-6.502812E-2],"categories":[],"categories_nodes":[],"categories_segments":[],"categories_sizes":[],"default_left":[0,0,0,0,0,0,0,0,0,0,0,0,0,0,0,0,0,0,0,0,0,0,0,0,0,0,0,0,0,0,0,0,0,0,0,0,0,0,0,0,0,0,0,0,0,0,0,0,0,0,0,0,0,0,0,0,0,0,0,0,0,0,0,0,0,0,0,0,0,0,0,0,0,0,0,0,0,0,0,0,0,0,0,0,0,0,0,0,0,0,0,0,0,0,0,0,0,0,0,0,0,0,0,0,0],"id":4,"left_children":[1,3,5,7,9,11,13,15,17,19,21,23,25,27,29,31,33,35,37,39,41,43,45,-1,47,49,-1,51,53,55,57,59,61,63,65,67,69,71,-1,73,75,77,79,81,83,85,87,89,91,93,95,97,99,101,-1,103,-1,-1,-1,-1,-1,-1,-1,-1,-1,-1,-1,-1,-1,-1,-1,-1,-1,-1,-1,-1,-1,-1,-1,-1,-1,-1,-1,-1,-1,-1,-1,-1,-1,-1,-1,-1,-1,-1,-1,-1,-1,-1,-1,-1,-1,-1,-1,-1,-1],"loss_changes":[1.6587931E5,4.133383E3,7.662422E2,1.6322031E3,8.2631244E2,3.0543216E2,2.2367188E1,4.8853125E2,6.667356E2,5.6064148E1,4.294363E2,2.5973688E2,2.5007172E0,1.8502228E1,9.453125E-1,1.3511792E3,3.8814062E2,7.8303186E2,5.2744675E0,9.240662E0,5.8841255E1,1.5424608E2,1.419143E2,0E0,3.6681485E2,6.150011E0,0E0,1.21257866E2,1.1904602E0,9.142456E-1,8.359375E-1,4.29375E1,3.38743E2,2.44375E1,1.9871094E3,1.137117E1,4.5270215E2,1.2735984E1,0E0,2.412397E1,2.241516E0,5.5019913E0,7.6017804E0,4.1705795E2,3.706784E1,2.561087E1,9.829212E1,2.5699982E2,1.0583257E2,9.212173E0,4.3040085E-1,4.9931694E1,4.3837433E0,2.9323196E0,0E0,5.4823074E0,0E0,0E0,0E0,0E0,0E0,0E0,0E0,0E0,0E0,0E0,0E0,0E0,0E0,0E0,0E0,0E0,0E0,0E0,0E0,0E0,0E0,0E0,0E0,0E0,0E0,0E0,0E0,0E0,0E0,0E0,0E0,0E0,0E0,0E0,0E0,0E0,0E0,0E0,0E0,0E0,0E0,0E0,0E0,0E0,0E0,0E0,0E0,0E0,0E0],"parents":[2147483647,0,0,1,1,2,2,3,3,4,4,5,5,6,6,7,7,8,8,9,9,10,10,11,11,12,12,13,13,14,14,15,15,16,16,17,17,18,18,19,19,20,20,21,21,22,22,24,24,25,25,27,27,28,28,29,29,30,30,31,31,32,32,33,33,34,34,35,35,36,36,37,37,39,39,40,40,41,41,42,42,43,43,44,44,45,45,46,46,47,47,48,48,49,49,50,50,51,51,52,52,53,53,55,55],"right_children":[2,4,6,8,10,12,14,16,18,20,22,24,26,28,30,32,34,36,38,40,42,44,46,-1,48,50,-1,52,54,56,58,60,62,64,66,68,70,72,-1,74,76,78,80,82,84,86,88,90,92,94,96,98,100,102,-1,104,-1,-1,-1,-1,-1,-1,-1,-1,-1,-1,-1,-1,-1,-1,-1,-1,-1,-1,-1,-1,-1,-1,-1,-1,-1,-1,-1,-1,-1,-1,-1,-1,-1,-1,-1,-1,-1,-1,-1,-1,-1,-1,-1,-1,-1,-1,-1,-1,-1],"split_conditions":[-1.7710184E0,3.4035573E0,-1.5755032E0,-2.001367E0,-7.274063E0,1.4426084E0,-1.3808805E0,-2.4887733E0,2.0326016E0,6.7450943E0,-8.5357964E-1,-2.4887733E0,1.8243753E0,-9.080093E-1,-1.3021629E0,-3.9219701E0,2.6545763E0,-2.3670015E0,2.297898E0,2.2147267E0,-8.014989E0,-4.2502046E0,-2.8935678E0,-6.703923E-2,2.628325E-1,-1.6368483E0,-6.473225E-2,5.8859473E-1,1.9460209E-1,1.7215219E0,1.4426084E0,-4.930325E0,1.3704177E0,2.5253463E0,-2.8528054E0,1.5812944E0,1.8668243E-1,-1.3187008E0,-6.4888835E-2,-5.733943E0,-5.885715E0,-5.863988E0,-4.3982096E0,-4.318948E0,3.5784192E0,4.9317913E0,4.0889926E0,3.1488411E0,9.2360985E-1,-2.2114944E0,-1.025843E0,1.0931167E-1,-1.025843E0,1.289298E0,-6.531111E-2,-9.080093E-1,-6.4955816E-2,-6.532794E-2,-6.468048E-2,1.2046897E-1,1.6327907E-1,1.0999981E-1,-2.1296559E-2,1.6457804E-1,1.4347647E-1,1.5855189E-1,-2.3460502E-2,-6.374258E-2,7.9598255E-2,4.549564E-2,1.567854E-1,5.3865504E-2,-6.2964335E-2,-6.034718E-2,1.3715366E-1,7.303834E-2,1.6377597E-1,7.521258E-2,1.645378E-1,-6.3429825E-2,1.2211952E-1,-4.3823127E-2,1.4132854E-1,-8.013413E-3,-5.895081E-2,1.7430244E-1,3.5461754E-2,1.3105102E-1,-2.5526166E-2,1.2621935E-1,-6.0162105E-2,-5.968047E-2,1.1055397E-1,-2.9453874E-2,1.4281824E-1,-3.9719433E-2,-6.432312E-2,-6.309175E-2,1.0006564E-1,-6.0034513E-2,-1.6048267E-2,-3.8049784E-2,-6.437542E-2,-3.848816E-2,-6.502812E-2],"split_indices":[2,0,2,2,2,1,2,4,1,0,4,4,1,4,2,2,1,4,1,1,2,2,2,0,4,4,0,0,4,0,1,4,0,0,2,1,0,4,0,4,4,4,4,4,0,1,0,0,1,4,4,1,4,1,0,4,0,0,0,0,0,0,0,0,0,0,0,0,0,0,0,0,0,0,0,0,0,0,0,0,0,0,0,0,0,0,0,0,0,0,0,0,0,0,0,0,0,0,0,0,0,0,0,0,0],"split_type":[0,0,0,0,0,0,0,0,0,0,0,0,0,0,0,0,0,0,0,0,0,0,0,0,0,0,0,0,0,0,0,0,0,0,0,0,0,0,0,0,0,0,0,0,0,0,0,0,0,0,0,0,0,0,0,0,0,0,0,0,0,0,0,0,0,0,0,0,0,0,0,0,0,0,0,0,0,0,0,0,0,0,0,0,0,0,0,0,0,0,0,0,0,0,0,0,0,0,0,0,0,0,0,0,0],"sum_hessian":[2.1251461E5,4.8460113E4,1.640545E5,4.60126E4,2.4475117E3,1.6052878E3,1.6244922E5,4.3760656E4,2.251944E3,4.538732E2,1.9936384E3,1.1183425E3,4.8694537E2,1.4763256E3,1.6097289E5,3.5037122E3,4.0256945E4,1.9172117E3,3.3473242E2,3.8672348E2,6.714973E1,1.6589917E3,3.3464673E2,2.0930768E2,9.090348E2,7.230337E1,4.14642E2,6.662898E2,8.100357E2,7.494479E2,1.6022344E5,2.5710068E3,9.327055E2,3.489046E4,5.366485E3,2.822799E2,1.6349318E3,4.07788E1,2.939536E2,5.588248E1,3.3084097E2,3.8020218E1,2.9129509E1,5.692243E2,1.0897675E3,1.6283556E2,1.7181119E2,6.141856E2,2.9484918E2,1.4843787E1,5.7459583E1,1.0022935E2,5.660605E2,1.9957571E2,6.1046E2,3.7664737E2,3.728005E2,1.2020558E5,4.001786E4,2.770786E2,2.2939282E3,2.799928E2,6.527127E2,3.4271145E4,6.193165E2,4.678757E3,6.877278E2,2.7744525E2,4.834637E0,5.534736E2,1.0814581E3,1.2884254E1,2.7894548E1,6.4751434E0,4.9407337E1,5.0341797E0,3.258068E2,1.3206721E1,2.4813498E1,2.7653492E1,1.4760178E0,3.9450906E2,1.7471521E2,1.6949173E2,9.202757E2,1.4760475E2,1.5230809E1,6.188116E1,1.0993002E2,5.2880524E2,8.538038E1,2.5314288E2,4.17063E1,1.1728585E1,3.115202E0,1.6987778E1,4.0471806E1,2.4015463E1,7.621388E1,5.4150854E2,2.4551903E1,7.236997E1,1.2720574E2,1.2013731E2,2.5651007E2],"tree_param":{"num_deleted":"0","num_feature":"5","num_nodes":"105","size_leaf_vector":"1"}},{"base_weights":[3.9386302E-1,-1.8509023E-1,9.135162E-1,-6.299534E-1,1.0915078E-1,1.2867615E0,-4.972402E-1,-6.4836615E-1,-3.064473E-1,5.060268E-1,-4.316971E-1,1.3846091E0,5.321163E-1,-6.219534E-1,2.2626802E-1,-6.5131955E-2,-4.9838004E-1,3.8012972E-1,-6.0711026E-1,9.2292887E-1,-2.7058044E-1,-2.2627947E-1,-5.2124566E-1,-5.423838E-1,1.4050497E0,-1.17540635E-1,1.0562409E0,-6.47854E-1,-3.1608227E-1,1.1257535E0,-2.6070857E-1,-2.9286104E-1,-6.507315E-2,1.0244746E0,-1.3970955E-1,-6.194905E-1,-1.6127123E-1,1.5609543E0,8.034419E-1,-6.2804836E-1,1.5727228E-1,-6.482201E-2,-1.2294393E-1,-4.7736546E-1,-6.362119E-1,-6.4506733E-1,-5.5135526E-2,1.175105E0,1.5535946E0,5.9651434E-1,-1.9001153E-1,-6.1932087E-1,1.1879066E0,-6.512118E-2,-5.4683274E-1,1.1952908E0,-6.0035574E-1,7.488817E-1,1.4623718E0,1.13189965E-1,-6.2101805E-1,-1.6449086E-2,-4.163561E-2,1.13906436E-1,5.2631695E-2,7.7463067E-3,-3.156568E-2,-6.4319365E-2,-5.14746E-2,-4.2259257E-2,1.1466526E-1,7.298171E-2,1.5828367E-1,9.5789716E-2,6.494561E-2,-6.469842E-2,-4.3119278E-2,8.572291E-2,-3.1429674E-2,-5.452692E-3,-4.4372108E-2,-5.414578E-2,-3.8489707E-2,-6.1111778E-2,-6.486463E-2,-6.520104E-2,-3.7638683E-2,1.6544317E-1,-6.4548336E-2,1.3502988E-1,9.79717E-2,1.6285731E-1,1.4573853E-1,-6.436132E-2,7.221645E-2,-3.587547E-2,1.1296116E-2,-6.5011926E-2,-2.873738E-2,1.3489775E-1,7.488419E-2,1.6713654E-1,-6.175531E-2,3.8846444E-2,1.6092668E-1,-1.4060214E-2,-6.307283E-2,1.5953788E-1,5.5732407E-2,1.2176722E-1,1.6114886E-1,-1.4161921E-2,1.5128693E-1,-4.423906E-2,-6.507086E-2],"categories":[],"categories_nodes":[],"categories_segments":[],"categories_sizes":[],"default_left":[0,0,0,0,0,0,0,0,0,0,0,0,0,0,0,0,0,0,0,0,0,0,0,0,0,0,0,0,0,0,0,0,0,0,0,0,0,0,0,0,0,0,0,0,0,0,0,0,0,0,0,0,0,0,0,0,0,0,0,0,0,0,0,0,0,0,0,0,0,0,0,0,0,0,0,0,0,0,0,0,0,0,0,0,0,0,0,0,0,0,0,0,0,0,0,0,0,0,0,0,0,0,0,0,0,0,0,0,0,0,0,0,0,0,0],"id":5,"left_children":[1,3,5,7,9,11,13,15,17,19,21,23,25,27,29,-1,31,33,35,37,39,41,43,45,47,49,51,53,55,57,59,61,-1,63,65,67,69,71,73,75,77,-1,79,81,83,85,87,89,91,93,95,97,99,-1,101,103,105,107,109,111,113,-1,-1,-1,-1,-1,-1,-1,-1,-1,-1,-1,-1,-1,-1,-1,-1,-1,-1,-1,-1,-1,-1,-1,-1,-1,-1,-1,-1,-1,-1,-1,-1,-1,-1,-1,-1,-1,-1,-1,-1,-1,-1,-1,-1,-1,-1,-1,-1,-1,-1,-1,-1,-1,-1],"loss_changes":[6.64516E4,1.367584E4,6.1291484E4,2.4755469E2,1.3498512E4,6.796E3,2.1975825E3,1.7109375E1,4.6298843E2,1.1743543E4,4.8947363E2,3.2101875E3,3.5980476E3,1.6436377E2,1.5690509E3,0E0,2.3736938E1,2.2902951E2,8.507385E0,1.798002E3,1.9379508E3,3.523072E2,9.319873E1,4.2789932E1,2.752125E3,2.4432065E2,1.2909766E3,6.13916E0,6.9830804E2,1.5851123E2,3.1319763E2,5.1177692E0,0E0,1.6825134E1,1.4509708E1,3.4350586E0,1.534695E1,6.65332E1,4.7221387E2,2.5453125E1,1.9042213E3,0E0,1.4248157E2,7.931738E1,1.2001953E0,1.0732422E0,1.5253575E2,1.0819883E3,3.5095312E2,6.825778E1,2.1911337E2,4.1759644E0,3.824834E2,0E0,9.865364E1,8.5341064E1,1.9003693E1,9.569159E1,2.2247803E1,4.0732587E2,5.990509E0,0E0,0E0,0E0,0E0,0E0,0E0,0E0,0E0,0E0,0E0,0E0,0E0,0E0,0E0,0E0,0E0,0E0,0E0,0E0,0E0,0E0,0E0,0E0,0E0,0E0,0E0,0E0,0E0,0E0,0E0,0E0,0E0,0E0,0E0,0E0,0E0,0E0,0E0,0E0,0E0,0E0,0E0,0E0,0E0,0E0,0E0,0E0,0E0,0E0,0E0,0E0,0E0,0E0,0E0],"parents":[2147483647,0,0,1,1,2,2,3,3,4,4,5,5,6,6,7,7,8,8,9,9,10,10,11,11,12,12,13,13,14,14,16,16,17,17,18,18,19,19,20,20,21,21,22,22,23,23,24,24,25,25,26,26,27,27,28,28,29,29,30,30,31,31,33,33,34,34,35,35,36,36,37,37,38,38,39,39,40,40,42,42,43,43,44,44,45,45,46,46,47,47,48,48,49,49,50,50,51,51,52,52,54,54,55,55,56,56,57,57,58,58,59,59,60,60],"right_children":[2,4,6,8,10,12,14,16,18,20,22,24,26,28,30,-1,32,34,36,38,40,42,44,46,48,50,52,54,56,58,60,62,-1,64,66,68,70,72,74,76,78,-1,80,82,84,86,88,90,92,94,96,98,100,-1,102,104,106,108,110,112,114,-1,-1,-1,-1,-1,-1,-1,-1,-1,-1,-1,-1,-1,-1,-1,-1,-1,-1,-1,-1,-1,-1,-1,-1,-1,-1,-1,-1,-1,-1,-1,-1,-1,-1,-1,-1,-1,-1,-1,-1,-1,-1,-1,-1,-1,-1,-1,-1,-1,-1,-1,-1,-1,-1],"split_conditions":[2.865276E-1,-1.7710184E0,1.1550583E0,-2.001367E0,-1.6971746E-2,-1.7198745E-2,-1.8461771E-1,-2.059794E0,1.8668243E-1,5.8859473E-1,-5.4773903E-3,-2.317004E0,3.0723205E-1,-1.6368483E0,2.001873E0,-6.5131955E-2,1.8668243E-1,-2.3905508E-2,2.6293007E-1,-2.7475571E-2,-1.9220753E0,-2.3179572E0,2.5253463E0,-2.445168E0,3.1070364E-1,2.6293302E-1,-2.317004E0,-2.0466282E0,2.2352595E0,3.0636498E-1,3.449367E0,-2.466905E-2,-6.507315E-2,-2.5473861E-2,-1.7198745E-2,-3.5162427E-2,-1.8623441E0,-1.7382215E0,-2.5308771E-2,-2.3670015E0,1.5569706E0,-6.482201E-2,1.7215219E0,1.8668243E-1,3.449367E0,-2.4887733E0,9.003421E-1,-2.553577E-2,-2.6794577E-2,-2.334356E0,3.012467E-1,-2.534055E0,-1.5565159E-3,-6.512118E-2,1.3704177E0,-1.3187008E0,2.6100433E0,2.4748139E-1,3.1086782E-1,3.1070364E-1,3.9700208E0,-1.6449086E-2,-4.163561E-2,1.13906436E-1,5.2631695E-2,7.7463067E-3,-3.156568E-2,-6.4319365E-2,-5.14746E-2,-4.2259257E-2,1.1466526E-1,7.298171E-2,1.5828367E-1,9.5789716E-2,6.494561E-2,-6.469842E-2,-4.3119278E-2,8.572291E-2,-3.1429674E-2,-5.452692E-3,-4.4372108E-2,-5.414578E-2,-3.8489707E-2,-6.1111778E-2,-6.486463E-2,-6.520104E-2,-3.7638683E-2,1.6544317E-1,-6.4548336E-2,1.3502988E-1,9.79717E-2,1.6285731E-1,1.4573853E-1,-6.436132E-2,7.221645E-2,-3.587547E-2,1.1296116E-2,-6.5011926E-2,-2.873738E-2,1.3489775E-1,7.488419E-2,1.6713654E-1,-6.175531E-2,3.8846444E-2,1.6092668E-1,-1.4060214E-2,-6.307283E-2,1.5953788E-1,5.5732407E-2,1.2176722E-1,1.6114886E-1,-1.4161921E-2,1.5128693E-1,-4.423906E-2,-6.507086E-2],"split_indices":[2,2,0,2,3,3,4,2,0,0,3,4,2,4,0,0,0,3,4,3,4,4,0,4,2,4,4,4,0,2,0,3,0,3,3,4,2,4,3,4,0,0,0,0,0,4,0,3,3,4,2,4,3,0,0,4,0,4,2,2,0,0,0,0,0,0,0,0,0,0,0,0,0,0,0,0,0,0,0,0,0,0,0,0,0,0,0,0,0,0,0,0,0,0,0,0,0,0,0,0,0,0,0,0,0,0,0,0,0,0,0,0,0,0,0],"split_type":[0,0,0,0,0,0,0,0,0,0,0,0,0,0,0,0,0,0,0,0,0,0,0,0,0,0,0,0,0,0,0,0,0,0,0,0,0,0,0,0,0,0,0,0,0,0,0,0,0,0,0,0,0,0,0,0,0,0,0,0,0,0,0,0,0,0,0,0,0,0,0,0,0,0,0,0,0,0,0,0,0,0,0,0,0,0,0,0,0,0,0,0,0,0,0,0,0,0,0,0,0,0,0,0,0,0,0,0,0,0,0,0,0,0,0],"sum_hessian":[2.2087434E5,1.0447635E5,1.1639799E5,4.1592094E4,6.2884254E4,9.20455E4,2.435249E4,3.935136E4,2.2407354E3,3.626958E4,2.6614678E4,8.1479945E4,1.0565553E4,2.0772084E4,3.580406E3,3.858817E4,7.631858E2,6.8233325E2,1.5584021E3,2.360021E4,1.2669367E4,8.080998E3,1.853368E4,8.5495654E2,8.062499E4,4.718146E3,5.8474067E3,1.9149434E4,1.6226501E3,1.2571099E3,2.3232961E3,3.2614502E2,4.3704074E2,3.0424655E2,3.7808673E2,1.515918E3,4.248416E1,3.720701E3,1.987951E4,6.9021777E3,5.7671895E3,1.588706E3,6.492292E3,1.3417612E4,5.116067E3,7.058753E2,1.4908122E2,3.1646191E4,4.89788E4,4.340661E2,4.28408E3,4.257434E2,5.421663E3,1.8528133E4,6.2130096E2,2.5637863E2,1.3662715E3,5.946147E2,6.624952E2,1.1404843E3,1.1828118E3,1.6105946E2,1.6508557E2,2.463035E2,5.7943043E1,1.6946945E2,2.0861728E2,1.2319858E3,2.839322E2,3.5973587E1,6.510575E0,9.632704E1,3.6243738E3,9.92202E3,9.95749E3,6.2944243E3,6.077537E2,2.3211116E3,3.4460776E3,5.351967E3,1.1403252E3,7.9218857E3,5.4957266E3,1.7117377E3,3.404329E3,6.867033E2,1.9172016E1,3.780387E1,1.1127734E2,1.6682223E4,1.4963967E4,2.7517648E4,2.1461154E4,3.9554417E1,3.945117E2,2.751452E3,1.532628E3,3.8871915E2,3.7024254E1,3.9650225E3,1.4566405E3,1.8496943E1,6.02804E2,8.759568E1,1.6878293E2,8.501508E1,1.2812565E3,1.0837498E2,4.862397E2,2.5432146E2,4.0817374E2,9.655977E2,1.7488657E2,1.708465E2,1.01196533E3],"tree_param":{"num_deleted":"0","num_feature":"5","num_nodes":"115","size_leaf_vector":"1"}},{"base_weights":[-1.4578624E-1,1.4684637E0,-5.5443716E-1,-1.6127406E-1,1.6087295E0,-6.213826E-1,6.484117E-1,-5.2318513E-1,8.9532006E-1,1.0638388E0,1.63014E0,8.6059E-4,-6.493211E-1,1.5512999E0,-1.3742752E-1,3.6921617E-2,-6.173857E-1,-1.2718426E-1,1.2322297E0,-3.152676E-1,1.3976786E0,1.6418837E0,1.2075863E0,-6.0938096E-1,8.5507935E-1,-6.514567E-1,-4.585673E-1,8.014653E-1,1.6105467E0,5.5762905E-1,-5.930443E-1,-5.574831E-1,8.768395E-1,-6.43858E-1,-3.6739442E-1,-5.4397833E-1,7.98435E-1,1.4736205E0,1.5573107E-1,2.8690538E-1,-6.290601E-1,1.5910478E0,7.0023566E-1,1.5205702E0,1.6492406E0,-6.6234076E-1,1.4658138E0,-6.528451E-2,-2.4904911E-1,-4.865815E-1,1.4719118E0,-5.650065E-1,-6.5170854E-1,7.0899844E-1,-6.5004796E-1,1.4390651E0,-6.2423564E-2,1.4066304E0,1.6699517E0,-5.6008977E-1,8.2724756E-1,-6.377004E-1,-5.1303003E-3,1.3428233E-2,-6.295868E-2,1.426521E-1,9.016098E-3,-6.514656E-2,-5.4447602E-2,1.0773877E-1,-5.850732E-2,2.0569352E-2,-5.6801643E-2,1.324275E-1,-1.5716795E-2,1.06994025E-1,1.6079645E-1,-4.232725E-2,8.942421E-2,1.2330704E-1,-3.3488087E-2,-4.5088228E-2,-6.477514E-2,1.6589554E-1,1.2579325E-1,-7.22525E-4,1.578385E-1,1.6181873E-1,-3.2539245E-2,1.6504788E-1,1.5829985E-1,-1.7143339E-2,-6.933617E-2,1.5890874E-1,2.4698626E-3,7.199629E-2,-6.0741585E-2,-5.837792E-2,3.0475257E-2,1.5345943E-1,-1.9108897E-2,-6.3355766E-2,8.609217E-2,-6.534243E-2,-6.473097E-2,1.3183191E-1,-6.5252595E-2,-3.8047228E-2,-6.52523E-2,6.7881785E-2,1.6855863E-1,-6.200393E-2,1.3261037E-1,1.633664E-1,-6.0996618E-2,1.7646821E-1,1.6446736E-1,-1.9008895E-2,-6.305482E-2,8.901572E-3,1.2276747E-1,-2.5901854E-2,-6.493019E-2,1.191441E-1,-6.5721564E-2],"categories":[],"categories_nodes":[],"categories_segments":[],"categories_sizes":[],"default_left":[0,0,0,0,0,0,0,0,0,0,0,0,0,0,0,0,0,0,0,0,0,0,0,0,0,0,0,0,0,0,0,0,0,0,0,0,0,0,0,0,0,0,0,0,0,0,0,0,0,0,0,0,0,0,0,0,0,0,0,0,0,0,0,0,0,0,0,0,0,0,0,0,0,0,0,0,0,0,0,0,0,0,0,0,0,0,0,0,0,0,0,0,0,0,0,0,0,0,0,0,0,0,0,0,0,0,0,0,0,0,0,0,0,0,0,0,0,0,0,0,0,0,0,0,0],"id":6,"left_children":[1,3,5,7,9,11,13,15,17,19,21,23,25,27,29,31,33,35,37,39,41,43,45,47,49,51,53,55,57,59,61,63,65,67,69,71,73,75,77,79,81,83,85,87,89,91,93,-1,95,97,99,101,103,105,107,109,111,113,115,117,119,121,123,-1,-1,-1,-1,-1,-1,-1,-1,-1,-1,-1,-1,-1,-1,-1,-1,-1,-1,-1,-1,-1,-1,-1,-1,-1,-1,-1,-1,-1,-1,-1,-1,-1,-1,-1,-1,-1,-1,-1,-1,-1,-1,-1,-1,-1,-1,-1,-1,-1,-1,-1,-1,-1,-1,-1,-1,-1,-1,-1,-1,-1,-1],"loss_changes":[1.4036712E5,9.8265625E3,1.3673586E4,1.3034077E3,4.600078E2,2.7962852E3,6.352304E3,1.3396686E2,2.9976086E2,6.907035E2,1.8698438E2,3.6039785E3,6.2402344E1,1.8378906E2,1.5164265E3,1.8342932E2,1.4145386E1,8.393836E1,1.6978217E2,5.5547073E1,1.6170068E2,3.05625E1,5.000171E2,6.2996704E1,2.3849312E3,2.953125E0,3.8225146E2,1.6922545E2,4.441211E1,5.7188245E2,7.593176E1,1.0817841E1,6.570456E1,1.1300659E0,6.680715E1,2.8170547E0,3.4180893E1,2.7255615E1,5.2098484E1,5.98718E1,3.5050964E-1,1.9276855E1,1.6392708E2,3.8454688E2,2.421875E-1,1.8013306E0,1.613418E2,0E0,1.5173888E2,7.0026245E1,2.0604736E2,4.4499817E1,7.2265625E-1,2.0086638E2,7.3095703E-1,3.197464E1,1.0252319E2,4.0259363E2,4.2421875E0,9.502411E0,4.5159485E2,1.1641602E1,1.6088704E2,0E0,0E0,0E0,0E0,0E0,0E0,0E0,0E0,0E0,0E0,0E0,0E0,0E0,0E0,0E0,0E0,0E0,0E0,0E0,0E0,0E0,0E0,0E0,0E0,0E0,0E0,0E0,0E0,0E0,0E0,0E0,0E0,0E0,0E0,0E0,0E0,0E0,0E0,0E0,0E0,0E0,0E0,0E0,0E0,0E0,0E0,0E0,0E0,0E0,0E0,0E0,0E0,0E0,0E0,0E0,0E0,0E0,0E0,0E0,0E0,0E0,0E0],"parents":[2147483647,0,0,1,1,2,2,3,3,4,4,5,5,6,6,7,7,8,8,9,9,10,10,11,11,12,12,13,13,14,14,15,15,16,16,17,17,18,18,19,19,20,20,21,21,22,22,23,23,24,24,25,25,26,26,27,27,28,28,29,29,30,30,31,31,32,32,33,33,34,34,35,35,36,36,37,37,38,38,39,39,40,40,41,41,42,42,43,43,44,44,45,45,46,46,48,48,49,49,50,50,51,51,52,52,53,53,54,54,55,55,56,56,57,57,58,58,59,59,60,60,61,61,62,62],"right_children":[2,4,6,8,10,12,14,16,18,20,22,24,26,28,30,32,34,36,38,40,42,44,46,48,50,52,54,56,58,60,62,64,66,68,70,72,74,76,78,80,82,84,86,88,90,92,94,-1,96,98,100,102,104,106,108,110,112,114,116,118,120,122,124,-1,-1,-1,-1,-1,-1,-1,-1,-1,-1,-1,-1,-1,-1,-1,-1,-1,-1,-1,-1,-1,-1,-1,-1,-1,-1,-1,-1,-1,-1,-1,-1,-1,-1,-1,-1,-1,-1,-1,-1,-1,-1,-1,-1,-1,-1,-1,-1,-1,-1,-1,-1,-1,-1,-1,-1,-1,-1,-1,-1,-1,-1],"split_conditions":[-2.317004E0,-3.5947092E0,2.8370938E0,3.4937222E0,-2.117118E0,-1.3721293E0,9.2360985E-1,-4.711025E0,-7.274063E0,1.3704177E0,3.306498E0,1.1550583E0,2.3387935E0,-1.8623441E0,-1.8461771E-1,-5.657538E0,-4.2502046E0,6.371293E0,-3.9595032E0,-2.9404914E0,-2.805027E0,9.003421E-1,1.1550583E0,9.003421E-1,-1.6788064E0,-1.2636957E0,-7.311168E-1,-9.080093E-1,3.6965518E0,-2.9307058E0,5.2929463E0,1.1179117E0,-4.9746027E0,2.7654333E0,-4.222671E0,-5.885715E0,3.9231913E0,-6.3463955E0,-4.83428E0,1.0931167E-1,-2.805027E0,-3.3371103E0,3.09181E0,-2.4887733E0,2.297898E0,3.4598086E0,-3.093202E0,-6.528451E-2,-2.2114944E0,-2.001367E0,1.5812944E0,2.123434E0,1.4426084E0,1.289298E0,-6.787494E-1,-2.8935678E0,4.224737E0,2.2799984E-2,2.841379E-1,1.7079049E0,3.3561945E0,1.1179117E0,3.223327E0,1.3428233E-2,-6.295868E-2,1.426521E-1,9.016098E-3,-6.514656E-2,-5.4447602E-2,1.0773877E-1,-5.850732E-2,2.0569352E-2,-5.6801643E-2,1.324275E-1,-1.5716795E-2,1.06994025E-1,1.6079645E-1,-4.232725E-2,8.942421E-2,1.2330704E-1,-3.3488087E-2,-4.5088228E-2,-6.477514E-2,1.6589554E-1,1.2579325E-1,-7.22525E-4,1.578385E-1,1.6181873E-1,-3.2539245E-2,1.6504788E-1,1.5829985E-1,-1.7143339E-2,-6.933617E-2,1.5890874E-1,2.4698626E-3,7.199629E-2,-6.0741585E-2,-5.837792E-2,3.0475257E-2,1.5345943E-1,-1.9108897E-2,-6.3355766E-2,8.609217E-2,-6.534243E-2,-6.473097E-2,1.3183191E-1,-6.5252595E-2,-3.8047228E-2,-6.52523E-2,6.7881785E-2,1.6855863E-1,-6.200393E-2,1.3261037E-1,1.633664E-1,-6.0996618E-2,1.7646821E-1,1.6446736E-1,-1.9008895E-2,-6.305482E-2,8.901572E-3,1.2276747E-1,-2.5901854E-2,-6.493019E-2,1.191441E-1,-6.5721564E-2],"split_indices":[4,2,0,0,2,4,1,4,2,0,1,0,0,2,4,2,2,0,4,4,4,0,0,0,2,4,4,4,0,2,0,1,4,0,4,4,1,2,2,1,4,4,0,4,1,1,4,0,4,2,1,0,1,1,4,2,0,4,2,1,0,1,1,0,0,0,0,0,0,0,0,0,0,0,0,0,0,0,0,0,0,0,0,0,0,0,0,0,0,0,0,0,0,0,0,0,0,0,0,0,0,0,0,0,0,0,0,0,0,0,0,0,0,0,0,0,0,0,0,0,0,0,0,0,0],"split_type":[0,0,0,0,0,0,0,0,0,0,0,0,0,0,0,0,0,0,0,0,0,0,0,0,0,0,0,0,0,0,0,0,0,0,0,0,0,0,0,0,0,0,0,0,0,0,0,0,0,0,0,0,0,0,0,0,0,0,0,0,0,0,0,0,0,0,0,0,0,0,0,0,0,0,0,0,0,0,0,0,0,0,0,0,0,0,0,0,0,0,0,0,0,0,0,0,0,0,0,0,0,0,0,0,0,0,0,0,0,0,0,0,0,0,0,0,0,0,0,0,0,0,0,0,0],"sum_hessian":[2.1278336E5,4.2984336E4,1.6979902E5,3.4063293E3,3.9578008E4,1.6084742E5,8.951597E3,2.5376296E3,8.686996E2,1.4982651E3,3.8079742E4,6.911713E3,1.539357E5,4.1651187E3,4.786478E3,3.654298E2,2.1722E3,2.15448E2,6.5325165E2,2.9201102E2,1.2062542E3,3.7047234E4,1.0325077E3,4.031765E3,2.879948E3,1.5222898E5,1.7067285E3,3.0606403E2,3.8590547E3,1.8951492E3,2.891329E3,2.1418715E2,1.5124266E2,1.9627797E3,2.094202E2,1.4883974E2,6.660825E1,5.3329767E2,1.1995397E2,1.0006683E2,1.919442E2,9.434087E2,2.628455E2,2.130113E3,3.491712E4,1.25093254E2,9.074145E2,3.5970657E3,4.34699E2,9.071134E2,1.9728345E3,4.486657E2,1.5178031E5,2.4008603E2,1.4666425E3,1.7571236E2,1.3035167E2,8.7616516E2,2.9828894E3,3.6809848E2,1.5270507E3,2.6871377E3,2.0419144E2,2.0136316E1,1.9405083E2,8.855361E1,6.268904E1,1.8180552E3,1.447245E2,2.690386E1,1.8251633E2,4.389458E0,1.4445027E2,4.2716713E1,2.389154E1,1.3540204E2,3.9789563E2,6.747748E1,5.247649E1,3.929261E1,6.0774223E1,2.0608906E1,1.713353E2,7.803497E2,1.6305898E2,1.4611945E2,1.1672603E2,2.0232446E3,1.0686849E2,3.425295E4,6.64173E2,7.822833E0,1.1727042E2,8.3581573E2,7.159875E1,1.1708796E2,3.1761102E2,8.081166E2,9.899681E1,1.901249E3,7.158547E1,4.286158E2,2.0049904E1,1.09085414E5,4.2694895E4,1.6588123E2,7.42048E1,1.475039E1,1.4518921E3,4.3944706E1,1.3176765E2,9.339773E1,3.695394E1,7.8767645E2,8.848875E1,6.138102E2,2.3690793E3,5.9474678E1,3.086238E2,5.37441E2,9.896097E2,8.057111E1,2.6065667E3,7.173364E1,1.324578E2],"tree_param":{"num_deleted":"0","num_feature":"5","num_nodes":"125","size_leaf_vector":"1"}},{"base_weights":[-9.9334046E-2,9.587642E-2,-5.4152405E-1,-5.75144E-1,3.5887358E-1,-4.1962582E-1,-6.196994E-1,-6.2156093E-1,-4.0745127E-1,-5.7030773E-1,5.57615E-1,-5.37578E-1,-2.9352257E-1,-5.7910836E-1,-6.5107085E-2,-6.4132595E-1,-5.8104056E-1,-5.213564E-1,1.7375529E-1,3.169398E-2,-5.9427804E-1,1.6305937E-1,1.274443E0,-6.213067E-1,-5.0726104E-1,-6.47239E-1,-2.4446024E-1,-6.4845674E-2,-3.496835E-1,-6.458266E-2,-6.2119365E-1,-6.314102E-1,-3.400826E-1,-6.037432E-1,-4.216821E-1,-3.3274207E-1,4.8378217E-1,-1.8050191E-1,7.61407E-1,-6.078068E-1,-2.731655E-1,-1.03413254E-1,4.3267757E-1,1.3497969E0,3.8564092E-1,-5.4416436E-1,-6.3459367E-1,-4.271377E-1,-5.315472E-1,-6.4913265E-2,-5.219926E-1,-2.8836992E-1,3.9802316E-1,-2.8515777E-1,-5.8693343E-1,-6.4337276E-2,-5.530838E-2,-6.500735E-2,-5.3158946E-2,-4.5425873E-2,2.5198007E-2,-6.14487E-2,-4.4868078E-2,-4.8386883E-2,-1.5956854E-2,-1.2190275E-2,-6.1494436E-2,1.6545758E-2,7.637865E-2,-5.166927E-2,7.792317E-4,7.8772835E-5,9.7514726E-2,-4.908174E-2,-6.317435E-2,-1.5060641E-2,-5.3041365E-2,-4.82247E-2,6.999158E-4,3.3862084E-2,1.1231667E-1,5.0051678E-2,1.3829875E-1,5.965484E-2,1.5554438E-2,-6.345994E-2,-3.289054E-2,-6.1298843E-2,-6.4949125E-2,-3.291385E-2,-5.0235756E-2,-5.2509118E-2,-6.361734E-2,-2.6137704E-2,-6.1917573E-2,-1.395991E-2,-3.9611682E-2,1.1403074E-1,-3.5717458E-2,-2.0441065E-2,-5.622791E-2,-4.993993E-2,-6.2285002E-2],"categories":[],"categories_nodes":[],"categories_segments":[],"categories_sizes":[],"default_left":[0,0,0,0,0,0,0,0,0,0,0,0,0,0,0,0,0,0,0,0,0,0,0,0,0,0,0,0,0,0,0,0,0,0,0,0,0,0,0,0,0,0,0,0,0,0,0,0,0,0,0,0,0,0,0,0,0,0,0,0,0,0,0,0,0,0,0,0,0,0,0,0,0,0,0,0,0,0,0,0,0,0,0,0,0,0,0,0,0,0,0,0,0,0,0,0,0,0,0,0,0,0,0],"id":7,"left_children":[1,3,5,7,9,11,13,15,17,19,21,23,25,27,-1,29,31,33,35,37,39,41,43,45,47,49,51,-1,53,-1,55,57,59,61,63,65,67,69,71,73,75,77,79,81,83,85,87,89,91,-1,93,95,97,99,101,-1,-1,-1,-1,-1,-1,-1,-1,-1,-1,-1,-1,-1,-1,-1,-1,-1,-1,-1,-1,-1,-1,-1,-1,-1,-1,-1,-1,-1,-1,-1,-1,-1,-1,-1,-1,-1,-1,-1,-1,-1,-1,-1,-1,-1,-1,-1,-1],"loss_changes":[1.8423752E4,2.6130885E4,6.226465E2,3.2427637E2,1.9644588E4,3.797881E2,5.033496E1,2.577832E1,5.986637E2,2.705005E2,2.4785082E4,3.3185303E1,2.14125E2,2.7613086E2,0E0,1.5859375E0,1.2984546E2,6.1828857E1,2.3293176E2,1.1142548E2,7.8146484E1,4.061039E3,2.083125E3,3.2458496E0,1.8637451E1,1.763916E-2,3.060713E2,0E0,6.1586273E1,0E0,5.7382812E0,1.616455E1,1.2550693E2,6.6158447E0,5.574182E1,3.3448692E1,8.186865E1,3.5302467E1,2.6353737E1,4.8126953E1,2.2954163E1,1.1891083E3,1.8243315E3,8.0771484E2,1.1797281E2,9.949997E0,5.621338E-1,1.6494904E1,4.6882324E0,0E0,5.3461885E-1,1.62677E2,3.8955875E2,7.089331E1,2.397705E0,0E0,0E0,0E0,0E0,0E0,0E0,0E0,0E0,0E0,0E0,0E0,0E0,0E0,0E0,0E0,0E0,0E0,0E0,0E0,0E0,0E0,0E0,0E0,0E0,0E0,0E0,0E0,0E0,0E0,0E0,0E0,0E0,0E0,0E0,0E0,0E0,0E0,0E0,0E0,0E0,0E0,0E0,0E0,0E0,0E0,0E0,0E0,0E0],"parents":[2147483647,0,0,1,1,2,2,3,3,4,4,5,5,6,6,7,7,8,8,9,9,10,10,11,11,12,12,13,13,15,15,16,16,17,17,18,18,19,19,20,20,21,21,22,22,23,23,24,24,25,25,26,26,28,28,30,30,31,31,32,32,33,33,34,34,35,35,36,36,37,37,38,38,39,39,40,40,41,41,42,42,43,43,44,44,45,45,46,46,47,47,48,48,50,50,51,51,52,52,53,53,54,54],"right_children":[2,4,6,8,10,12,14,16,18,20,22,24,26,28,-1,30,32,34,36,38,40,42,44,46,48,50,52,-1,54,-1,56,58,60,62,64,66,68,70,72,74,76,78,80,82,84,86,88,90,92,-1,94,96,98,100,102,-1,-1,-1,-1,-1,-1,-1,-1,-1,-1,-1,-1,-1,-1,-1,-1,-1,-1,-1,-1,-1,-1,-1,-1,-1,-1,-1,-1,-1,-1,-1,-1,-1,-1,-1,-1,-1,-1,-1,-1,-1,-1,-1,-1,-1,-1,-1,-1],"split_conditions":[3.106202E-1,-1.7710184E0,3.1212276E-1,-2.5065062E0,-1.143366E0,-2.5597677E-2,1.8668243E-1,-2.4438717E-3,-6.278879E-4,5.8859473E-1,-1.7198745E-2,-2.7393026E-2,1.4271416E-1,-2.6794577E-2,-6.5107085E-2,-2.728606E0,-3.2846146E0,-2.466905E-2,-1.025843E0,-1.2473057E-2,-1.6832758E0,-2.553577E-2,3.0636498E-1,3.1116924E-1,3.1130278E-1,7.127871E-2,-1.5565159E-3,-6.4845674E-2,3.1220725E-1,-6.458266E-2,-2.3492785E-2,-3.9219701E0,1.8165067E-1,-1.8623441E0,-1.9569721E0,2.6898975E0,3.5196483E-2,-2.667076E-2,-2.241013E0,1.1550583E0,3.4937222E0,-2.7454935E-2,1.3704177E0,-1.4675057E-1,3.09133E-1,-2.7496208E-2,3.1187835E-1,-2.6732668E-2,1.8668243E-1,-6.4913265E-2,9.1642305E-2,-2.270861E-2,5.274058E-3,-2.1367256E-2,-2.6319945E-2,-6.4337276E-2,-5.530838E-2,-6.500735E-2,-5.3158946E-2,-4.5425873E-2,2.5198007E-2,-6.14487E-2,-4.4868078E-2,-4.8386883E-2,-1.5956854E-2,-1.2190275E-2,-6.1494436E-2,1.6545758E-2,7.637865E-2,-5.166927E-2,7.792317E-4,7.8772835E-5,9.7514726E-2,-4.908174E-2,-6.317435E-2,-1.5060641E-2,-5.3041365E-2,-4.82247E-2,6.999158E-4,3.3862084E-2,1.1231667E-1,5.0051678E-2,1.3829875E-1,5.965484E-2,1.5554438E-2,-6.345994E-2,-3.289054E-2,-6.1298843E-2,-6.4949125E-2,-3.291385E-2,-5.0235756E-2,-5.2509118E-2,-6.361734E-2,-2.6137704E-2,-6.1917573E-2,-1.395991E-2,-3.9611682E-2,1.1403074E-1,-3.5717458E-2,-2.0441065E-2,-5.622791E-2,-4.993993E-2,-6.2285002E-2],"split_indices":[2,2,2,2,4,3,0,3,3,0,3,3,4,3,0,2,2,3,4,3,4,3,2,2,2,4,3,0,2,0,3,2,3,2,2,0,3,3,4,0,0,3,0,4,2,3,2,3,0,0,4,3,3,3,3,0,0,0,0,0,0,0,0,0,0,0,0,0,0,0,0,0,0,0,0,0,0,0,0,0,0,0,0,0,0,0,0,0,0,0,0,0,0,0,0,0,0,0,0,0,0,0,0],"split_type":[0,0,0,0,0,0,0,0,0,0,0,0,0,0,0,0,0,0,0,0,0,0,0,0,0,0,0,0,0,0,0,0,0,0,0,0,0,0,0,0,0,0,0,0,0,0,0,0,0,0,0,0,0,0,0,0,0,0,0,0,0,0,0,0,0,0,0,0,0,0,0,0,0,0,0,0,0,0,0,0,0,0,0,0,0,0,0,0,0,0,0,0,0,0,0,0,0,0,0,0,0,0,0],"sum_hessian":[2.1343362E5,1.4806792E5,6.5365703E4,4.1692074E4,1.0637584E5,2.5543033E4,3.982267E4,3.265151E4,9.040564E3,1.8743227E4,8.763262E4,1.3196381E4,1.2346653E4,1.7368838E4,2.2453832E4,2.1936479E4,1.071503E4,7.55921E3,1.481354E3,7.1771954E2,1.8025508E4,5.652269E4,3.1109922E4,3.5028367E3,9.693544E3,1.5024558E3,1.0844197E4,1.3335952E4,4.032886E3,1.7903158E4,4.0333213E3,8.861097E3,1.8539337E3,4.135725E3,3.4234849E3,5.6242896E2,9.189251E2,5.566128E2,1.611068E2,1.729592E4,7.29588E2,2.8427482E4,2.8095209E4,2.867804E4,2.4318833E3,5.2084454E2,2.9819922E3,2.2590918E3,7.434452E3,1.4759578E3,2.6498106E1,1.0150992E4,6.93205E2,3.1723047E3,8.6058124E2,3.03618E3,9.971414E2,7.4606685E3,1.4004281E3,1.5544072E3,2.995265E2,3.864971E3,2.7075424E2,2.766325E3,6.571599E2,3.2273712E2,2.3969179E2,4.3078052E2,4.8814456E2,1.992022E2,3.5741058E2,3.556134E1,1.25545456E2,2.9414067E3,1.4354513E4,4.9523285E2,2.3435518E2,6.4147163E3,2.2012766E4,2.4728275E4,3.3669333E3,1.0792128E3,2.7598826E4,1.2680189E3,1.1638643E3,3.6538867E2,1.5545587E2,1.2342126E3,1.7477794E3,9.833379E2,1.2757538E3,7.008034E3,4.264182E2,8.199384E0,1.8298723E1,4.2647554E3,5.8862373E3,3.4933426E2,3.438708E2,2.4578718E3,7.1443286E2,2.5471227E2,6.0586896E2],"tree_param":{"num_deleted":"0","num_feature":"5","num_nodes":"103","size_leaf_vector":"1"}},{"base_weights":[-1.5663064E-1,1.2638756E0,-6.30122E-1,1.3168026E0,1.6677575E-1,5.8020703E-2,-6.370281E-1,1.3518378E0,6.062215E-1,1.2400308E0,-8.9538045E-2,3.18876E-1,-6.0143113E-1,-5.347693E-1,-6.379625E-1,1.3566817E0,-1.0711919E-1,8.151265E-1,-5.5557126E-1,1.3425808E0,4.9254218E-1,-2.8286323E-1,8.003913E-1,-6.3646126E-1,5.456967E-1,-3.9586425E-1,-6.356479E-2,-4.4860646E-1,-6.2873304E-1,-5.9978586E-1,-6.3813746E-1,1.0765793E0,1.3824136E0,1.1815246E0,-6.636498E-2,-5.794604E-1,1.0460495E0,-1.742855E-1,-6.2899077E-1,9.54167E-1,1.408461E-1,-4.525736E-1,1.1214246E0,1.2663567E-1,-5.1764905E-1,1.2381712E0,5.4457635E-2,-6.529208E-2,-3.7784484E-1,9.1871893E-1,-3.5180765E-1,3.3166918E-1,-5.613565E-1,2.371797E-1,-5.5849046E-1,-5.51122E-1,-6.402155E-2,-5.637899E-1,-6.356679E-2,-6.394418E-2,-6.342083E-2,1.341276E-1,2.3296671E-2,1.4095958E-1,1.1988898E-1,1.3879286E-1,5.346305E-2,-6.323114E-2,8.322365E-4,4.0796645E-2,1.3607271E-1,3.583878E-2,-6.318129E-2,-4.0483344E-2,-6.42758E-2,2.9531209E-2,1.45933E-1,-6.1544985E-2,1.0512018E-1,1.7720375E-2,1.427748E-1,-3.8064394E-2,1.2277409E-1,-9.79295E-3,-5.701064E-2,1.5147603E-1,4.722218E-2,7.903618E-2,-5.8233775E-2,1.0108534E-1,-6.3085884E-2,1.1329984E-1,-5.81216E-2,-6.275553E-2,1.2148632E-1,1.12234235E-1,-5.5410422E-2,-3.6417738E-2,-6.3007794E-2,9.900673E-2,-2.644794E-2,-5.8005154E-2,-1.8319136E-2,-5.9148677E-2,2.7215982E-2,-4.2654596E-2,-6.3725695E-2],"categories":[],"categories_nodes":[],"categories_segments":[],"categories_sizes":[],"default_left":[0,0,0,0,0,0,0,0,0,0,0,0,0,0,0,0,0,0,0,0,0,0,0,0,0,0,0,0,0,0,0,0,0,0,0,0,0,0,0,0,0,0,0,0,0,0,0,0,0,0,0,0,0,0,0,0,0,0,0,0,0,0,0,0,0,0,0,0,0,0,0,0,0,0,0,0,0,0,0,0,0,0,0,0,0,0,0,0,0,0,0,0,0,0,0,0,0,0,0,0,0,0,0,0,0,0,0],"id":8,"left_children":[1,3,5,7,9,11,13,15,17,19,21,23,25,27,29,31,33,35,37,39,41,43,45,47,49,51,-1,53,55,57,59,61,63,65,-1,67,69,71,73,75,-1,77,79,81,83,85,87,-1,89,91,93,95,97,99,101,103,-1,105,-1,-1,-1,-1,-1,-1,-1,-1,-1,-1,-1,-1,-1,-1,-1,-1,-1,-1,-1,-1,-1,-1,-1,-1,-1,-1,-1,-1,-1,-1,-1,-1,-1,-1,-1,-1,-1,-1,-1,-1,-1,-1,-1,-1,-1,-1,-1,-1,-1],"loss_changes":[1.3972975E5,3.0155E3,7.405078E2,1.232625E3,6.579489E2,2.6666522E2,1.4402344E1,3.3383594E2,5.6591986E2,3.468219E1,3.324954E2,2.4101427E2,2.8391876E0,1.1076904E1,6.328125E-1,3.3770312E2,1.13506096E2,6.3669653E2,9.847313E0,9.016174E0,3.450763E1,1.5268073E2,1.1257153E2,6.623688E-1,3.009932E2,8.0550785E0,0E0,5.5547897E1,2.4301147E-1,5.637512E-1,3.7109375E-1,8.848613E2,2.1330469E2,5.635788E0,0E0,8.7419815E0,3.397716E2,1.4560185E1,6.590195E-1,2.0142147E1,0E0,6.419452E0,9.764988E0,3.2402087E2,2.2161804E1,4.5324097E1,6.0731407E1,0E0,5.9616494E0,2.0465088E2,1.1498413E2,9.544493E0,4.9705505E-1,3.8884228E1,5.0249023E0,3.2634544E0,0E0,3.4108963E0,0E0,0E0,0E0,0E0,0E0,0E0,0E0,0E0,0E0,0E0,0E0,0E0,0E0,0E0,0E0,0E0,0E0,0E0,0E0,0E0,0E0,0E0,0E0,0E0,0E0,0E0,0E0,0E0,0E0,0E0,0E0,0E0,0E0,0E0,0E0,0E0,0E0,0E0,0E0,0E0,0E0,0E0,0E0,0E0,0E0,0E0,0E0,0E0,0E0],"parents":[2147483647,0,0,1,1,2,2,3,3,4,4,5,5,6,6,7,7,8,8,9,9,10,10,11,11,12,12,13,13,14,14,15,15,16,16,17,17,18,18,19,19,20,20,21,21,22,22,23,23,24,24,25,25,27,27,28,28,29,29,30,30,31,31,32,32,33,33,35,35,36,36,37,37,38,38,39,39,41,41,42,42,43,43,44,44,45,45,46,46,48,48,49,49,50,50,51,51,52,52,53,53,54,54,55,55,57,57],"right_children":[2,4,6,8,10,12,14,16,18,20,22,24,26,28,30,32,34,36,38,40,42,44,46,48,50,52,-1,54,56,58,60,62,64,66,-1,68,70,72,74,76,-1,78,80,82,84,86,88,-1,90,92,94,96,98,100,102,104,-1,106,-1,-1,-1,-1,-1,-1,-1,-1,-1,-1,-1,-1,-1,-1,-1,-1,-1,-1,-1,-1,-1,-1,-1,-1,-1,-1,-1,-1,-1,-1,-1,-1,-1,-1,-1,-1,-1,-1,-1,-1,-1,-1,-1,-1,-1,-1,-1,-1,-1],"split_conditions":[-1.7710184E0,3.449367E0,-1.5755032E0,-2.001367E0,-7.274063E0,1.4426084E0,-1.3808805E0,6.9784546E0,1.93221E0,6.7450943E0,-8.5357964E-1,-2.334356E0,1.8243753E0,-3.2520533E-1,-1.3021629E0,-2.3670015E0,-4.652468E0,-2.3179572E0,2.297898E0,2.2147267E0,2.94081E0,-4.2502046E0,-2.5631742E0,-2.4887733E0,2.629309E-1,-1.9643105E0,-6.356479E-2,5.8859473E-1,1.9460209E-1,1.7215219E0,1.4426084E0,-3.5947092E0,2.6545763E0,-6.7738314E0,-6.636498E-2,-2.534055E0,1.8668243E-1,-1.025843E0,-3.3371103E0,-5.0627413E0,1.408461E-1,-4.3982096E0,-5.863988E0,-4.2636294E0,3.5784192E0,5.193113E0,4.224737E0,-6.529208E-2,9.003421E-1,3.09181E0,9.2360985E-1,1.7215219E0,-1.025843E0,-2.0876582E0,-6.1113983E-1,1.8695123E-1,-6.402155E-2,-3.7838548E-1,-6.356679E-2,-6.394418E-2,-6.342083E-2,1.341276E-1,2.3296671E-2,1.4095958E-1,1.1988898E-1,1.3879286E-1,5.346305E-2,-6.323114E-2,8.322365E-4,4.0796645E-2,1.3607271E-1,3.583878E-2,-6.318129E-2,-4.0483344E-2,-6.42758E-2,2.9531209E-2,1.45933E-1,-6.1544985E-2,1.0512018E-1,1.7720375E-2,1.427748E-1,-3.8064394E-2,1.2277409E-1,-9.79295E-3,-5.701064E-2,1.5147603E-1,4.722218E-2,7.903618E-2,-5.8233775E-2,1.0108534E-1,-6.3085884E-2,1.1329984E-1,-5.81216E-2,-6.275553E-2,1.2148632E-1,1.12234235E-1,-5.5410422E-2,-3.6417738E-2,-6.3007794E-2,9.900673E-2,-2.644794E-2,-5.8005154E-2,-1.8319136E-2,-5.9148677E-2,2.7215982E-2,-4.2654596E-2,-6.3725695E-2],"split_indices":[2,0,2,2,2,1,2,1,1,0,4,4,1,4,2,4,2,4,1,1,1,2,2,4,4,4,0,0,4,0,1,2,1,2,0,4,0,4,4,4,0,4,4,4,0,0,0,0,0,0,1,0,4,4,4,4,0,4,0,0,0,0,0,0,0,0,0,0,0,0,0,0,0,0,0,0,0,0,0,0,0,0,0,0,0,0,0,0,0,0,0,0,0,0,0,0,0,0,0,0,0,0,0,0,0,0,0],"split_type":[0,0,0,0,0,0,0,0,0,0,0,0,0,0,0,0,0,0,0,0,0,0,0,0,0,0,0,0,0,0,0,0,0,0,0,0,0,0,0,0,0,0,0,0,0,0,0,0,0,0,0,0,0,0,0,0,0,0,0,0,0,0,0,0,0,0,0,0,0,0,0,0,0,0,0,0,0,0,0,0,0,0,0,0,0,0,0,0,0,0,0,0,0,0,0,0,0,0,0,0,0,0,0,0,0,0,0],"sum_hessian":[2.0774431E5,5.193478E4,1.5580953E5,4.9544426E4,2.3903545E3,1.5480706E3,1.5426147E5,4.7215566E4,2.32886E3,4.600718E2,1.9302826E3,1.1096498E3,4.3842084E2,1.402003E3,1.5285945E5,4.705939E4,1.5617616E2,1.9741766E3,3.5468353E2,4.038679E2,5.620392E1,1.5863513E3,3.4393134E2,2.1256201E2,8.9708777E2,6.435565E1,3.740652E2,7.343728E2,6.676303E2,7.12933E2,1.5214653E5,3.9630322E3,4.309636E4,4.6766212E1,1.0940995E2,2.802408E2,1.6939358E3,5.781416E1,2.968694E2,6.0812828E1,3.4305505E2,2.2567984E1,3.3635933E1,5.782551E2,1.0080962E3,2.163173E2,1.2761403E2,1.9840962E2,1.4152389E1,6.3368915E2,2.633986E2,1.17400675E1,5.261558E1,1.01258675E2,6.331141E2,9.2359215E1,5.752711E2,3.64244E2,3.4868903E2,1.1410567E5,3.8040855E4,3.016095E3,9.469372E2,3.7530895E4,5.565466E3,3.4585514E1,1.2180698E1,2.57052E2,2.318883E1,5.6023126E2,1.1337046E3,2.6813454E1,3.1000704E1,1.8937454E1,2.7793195E2,2.7079361E1,3.3733467E1,2.089549E1,1.6724929E0,8.625843E0,2.501009E1,3.9632318E2,1.8193195E2,1.12314766E2,8.9578143E2,1.5820932E2,5.8107986E1,5.908828E1,6.852575E1,1.719493E0,1.2432896E1,5.546911E2,7.899805E1,2.2448647E2,3.8912132E1,6.0619116E0,5.678156E0,1.5226443E1,3.7389137E1,4.010128E1,6.115739E1,5.9820154E2,3.4912544E1,8.831096E1,4.0482564E0,1.2937122E2,2.3487277E2],"tree_param":{"num_deleted":"0","num_feature":"5","num_nodes":"107","size_leaf_vector":"1"}},{"base_weights":[3.6052233E-1,7.449041E-1,-5.799462E-1,1.158286E0,-2.819415E-1,-7.529369E-2,-6.6761947E-1,-6.0293835E-1,1.4953908E0,1.6371217E-1,-4.764814E-1,7.8067845E-1,-5.418551E-1,-6.94997E-1,-6.473922E-1,-6.3062614E-1,3.1682205E-1,7.894202E-1,1.5001976E0,-4.2366996E-1,5.273848E-1,-2.7216876E-1,-6.0100704E-1,-6.189371E-1,1.5335256E0,-6.280739E-1,-3.9892054E-1,-7.026166E-1,-6.499878E-2,-6.4496917E-1,-7.0204616E-2,-6.371962E-2,-2.930263E-1,1.3153937E0,-5.455161E-1,1.6030401E0,-2.0815612E-1,1.5702575E0,1.4428406E0,-6.2171745E-1,-6.692208E-2,9.5335335E-1,2.5257826E-1,-3.3926857E-1,2.9414138E-1,-5.0515515E-1,-6.229388E-1,-6.38181E-2,2.9623786E-1,8.223717E-1,1.6268277E0,-6.353199E-2,-5.52539E-1,3.7742355E-1,-5.164475E-1,-6.391523E-2,-7.078324E-1,-6.5273665E-2,-6.420528E-2,-1.1659923E-2,-6.34044E-2,1.7000672E-1,-6.0361613E-2,-6.262943E-2,-4.3750253E-2,1.6406234E-1,5.704711E-2,-1.5453309E-2,-5.966745E-2,1.5133743E-1,1.6457936E-1,1.4273249E-1,1.4863728E-1,-6.3161425E-2,-4.075737E-2,-1.0710479E-3,-4.507043E-2,1.0374119E-1,-1.110882E-2,1.7178323E-2,1.1863728E-1,-2.6007304E-2,-4.7295075E-2,-4.237976E-2,1.0608436E-1,-5.339848E-2,2.7222022E-2,-5.8832742E-2,-6.3491575E-2,1.6430643E-1,-4.120271E-2,1.7350361E-1,-6.8593815E-2,1.711475E-1,1.4987831E-1,4.2242903E-2,-6.1717838E-2,1.4741538E-1,-6.8600304E-2,-1.7874788E-2,-6.512841E-2,-7.020246E-2,-7.285286E-2],"categories":[],"categories_nodes":[],"categories_segments":[],"categories_sizes":[],"default_left":[0,0,0,0,0,0,0,0,0,0,0,0,0,0,0,0,0,0,0,0,0,0,0,0,0,0,0,0,0,0,0,0,0,0,0,0,0,0,0,0,0,0,0,0,0,0,0,0,0,0,0,0,0,0,0,0,0,0,0,0,0,0,0,0,0,0,0,0,0,0,0,0,0,0,0,0,0,0,0,0,0,0,0,0,0,0,0,0,0,0,0,0,0,0,0,0,0,0,0,0,0,0,0],"id":9,"left_children":[1,3,5,7,9,11,13,15,17,19,21,23,25,27,29,31,33,35,37,39,41,43,45,47,49,51,53,55,-1,57,-1,-1,59,61,63,65,67,69,71,73,75,77,79,81,83,85,87,-1,89,91,93,-1,95,97,99,-1,101,-1,-1,-1,-1,-1,-1,-1,-1,-1,-1,-1,-1,-1,-1,-1,-1,-1,-1,-1,-1,-1,-1,-1,-1,-1,-1,-1,-1,-1,-1,-1,-1,-1,-1,-1,-1,-1,-1,-1,-1,-1,-1,-1,-1,-1,-1],"loss_changes":[8.1075586E4,6.7579984E4,2.8789395E3,6.7393766E4,3.9618877E3,3.8472832E3,3.0251953E1,4.6461475E2,3.2210938E2,2.9666902E3,8.091763E2,3.5819795E3,7.658667E1,7.616211E0,3.7714844E0,3.9081055E1,4.6020566E2,5.2502094E2,3.7801562E2,3.7518127E2,1.0037981E3,4.5791992E2,4.12334E1,2.1136078E1,1.4531055E2,1.7766113E0,2.14487E2,6.208008E0,0E0,2.734375E-1,0E0,0E0,2.0370764E1,1.8377457E2,2.2304535E0,1.2885925E1,5.976186E0,1.8049219E2,3.303125E1,6.9798584E0,4.091771E1,3.010359E2,3.9325015E2,1.1392346E2,7.0328265E2,8.274054E1,6.291992E0,0E0,2.469441E1,3.5684265E2,1.8600098E1,0E0,2.2188393E1,3.618359E2,9.278497E1,0E0,1.7216797E0,0E0,0E0,0E0,0E0,0E0,0E0,0E0,0E0,0E0,0E0,0E0,0E0,0E0,0E0,0E0,0E0,0E0,0E0,0E0,0E0,0E0,0E0,0E0,0E0,0E0,0E0,0E0,0E0,0E0,0E0,0E0,0E0,0E0,0E0,0E0,0E0,0E0,0E0,0E0,0E0,0E0,0E0,0E0,0E0,0E0,0E0],"parents":[2147483647,0,0,1,1,2,2,3,3,4,4,5,5,6,6,7,7,8,8,9,9,10,10,11,11,12,12,13,13,14,14,15,15,16,16,17,17,18,18,19,19,20,20,21,21,22,22,23,23,24,24,25,25,26,26,27,27,29,29,32,32,33,33,34,34,35,35,36,36,37,37,38,38,39,39,40,40,41,41,42,42,43,43,44,44,45,45,46,46,48,48,49,49,50,50,52,52,53,53,54,54,56,56],"right_children":[2,4,6,8,10,12,14,16,18,20,22,24,26,28,30,32,34,36,38,40,42,44,46,48,50,52,54,56,-1,58,-1,-1,60,62,64,66,68,70,72,74,76,78,80,82,84,86,88,-1,90,92,94,-1,96,98,100,-1,102,-1,-1,-1,-1,-1,-1,-1,-1,-1,-1,-1,-1,-1,-1,-1,-1,-1,-1,-1,-1,-1,-1,-1,-1,-1,-1,-1,-1,-1,-1,-1,-1,-1,-1,-1,-1,-1,-1,-1,-1,-1,-1,-1,-1,-1,-1],"split_conditions":[9.2360985E-1,5.8859473E-1,1.4426084E0,-1.8623441E0,1.3704177E0,1.8668243E-1,-1.7301926E-2,-2.001367E0,-1.5755032E0,-3.1877148E-1,2.3387935E0,-1.4642705E0,-5.502585E-1,1.3704177E0,3.0723205E-1,-2.059794E0,1.8668243E-1,1.8668243E-1,3.106202E-1,-1.6788064E0,9.003421E-1,1.0931167E-1,2.905257E0,-1.6788064E0,-3.1877148E-1,-1.1101843E0,9.003421E-1,-1.8623441E0,-6.499878E-2,-5.4773903E-3,-7.0204616E-2,-6.371962E-2,1.8668243E-1,1.0931167E-1,-1.9569721E0,4.3400836E-1,4.3400836E-1,-2.553577E-2,-2.5597677E-2,-1.7710184E0,9.710834E-3,4.2422493E-3,1.0931167E-1,3.120132E-1,-5.4739982E-2,4.3400836E-1,3.6189167E0,-6.38181E-2,1.1179117E0,1.289298E0,3.0723205E-1,-6.353199E-2,5.8859473E-1,1.289298E0,1.1179117E0,-6.391523E-2,3.09133E-1,-6.5273665E-2,-6.420528E-2,-1.1659923E-2,-6.34044E-2,1.7000672E-1,-6.0361613E-2,-6.262943E-2,-4.3750253E-2,1.6406234E-1,5.704711E-2,-1.5453309E-2,-5.966745E-2,1.5133743E-1,1.6457936E-1,1.4273249E-1,1.4863728E-1,-6.3161425E-2,-4.075737E-2,-1.0710479E-3,-4.507043E-2,1.0374119E-1,-1.110882E-2,1.7178323E-2,1.1863728E-1,-2.6007304E-2,-4.7295075E-2,-4.237976E-2,1.0608436E-1,-5.339848E-2,2.7222022E-2,-5.8832742E-2,-6.3491575E-2,1.6430643E-1,-4.120271E-2,1.7350361E-1,-6.8593815E-2,1.711475E-1,1.4987831E-1,4.2242903E-2,-6.1717838E-2,1.4741538E-1,-6.8600304E-2,-1.7874788E-2,-6.512841E-2,-7.020246E-2,-7.285286E-2],"split_indices":[1,0,1,2,0,0,3,2,2,2,0,2,2,0,2,2,0,0,2,2,0,1,0,2,2,2,0,2,0,3,0,0,0,1,2,1,1,3,3,2,3,3,1,2,2,1,0,0,1,1,2,0,0,1,1,0,2,0,0,0,0,0,0,0,0,0,0,0,0,0,0,0,0,0,0,0,0,0,0,0,0,0,0,0,0,0,0,0,0,0,0,0,0,0,0,0,0,0,0,0,0,0,0],"split_type":[0,0,0,0,0,0,0,0,0,0,0,0,0,0,0,0,0,0,0,0,0,0,0,0,0,0,0,0,0,0,0,0,0,0,0,0,0,0,0,0,0,0,0,0,0,0,0,0,0,0,0,0,0,0,0,0,0,0,0,0,0,0,0,0,0,0,0,0,0,0,0,0,0,0,0,0,0,0,0,0,0,0,0,0,0,0,0,0,0,0,0,0,0,0,0,0,0,0,0,0,0,0,0],"sum_hessian":[2.2427395E5,1.59205E5,6.5068953E4,1.1350903E5,4.5695973E4,9.631477E3,5.5437477E4,1.8235543E4,9.5273484E4,1.388599E4,3.180998E4,3.3975408E3,6.233936E3,2.3541178E4,3.1896297E4,1.770294E4,5.32602E2,6.4544684E2,9.462804E4,5.309783E3,8.576207E3,1.204712E4,1.9762861E4,1.1883889E3,2.2091519E3,3.8863062E3,2.34763E3,2.0120418E4,3.4207615E3,3.055448E4,1.3418174E3,1.7364129E4,3.388118E2,2.4656215E2,2.8603983E2,3.5516696E2,2.902799E2,4.2585215E4,5.2042824E4,3.4138516E3,1.8959319E3,3.362162E3,5.2140444E3,1.0771275E4,1.2758444E3,3.6844016E3,1.607846E4,1.164211E3,2.4177876E1,2.573594E2,1.9517924E3,3.5393657E3,3.4694058E2,3.0837762E2,2.0392523E3,1.5374067E3,1.858301E4,8.279633E3,2.2274848E4,2.241755E2,1.1463631E2,2.0548578E2,4.1076374E1,1.609069E2,1.2513291E2,3.421255E2,1.3041471E1,2.5630292E2,3.3977005E1,2.430388E4,1.8281334E4,3.8392793E4,1.3650034E4,3.2611836E3,1.526678E2,1.6546128E3,2.4131905E2,3.1161094E3,2.4605258E2,4.799923E3,4.1412146E2,6.765956E3,4.0053196E3,6.5910583E2,6.167385E2,3.5529504E3,1.3145113E2,4.146331E3,1.1932129E4,7.8777723E0,1.6300102E1,1.6024582E2,9.711358E1,1.1675731E3,7.8421924E2,2.1227474E1,3.257131E2,1.5162152E2,1.5675612E2,5.825574E2,1.456695E3,1.4538192E4,4.0448179E3],"tree_param":{"num_deleted":"0","num_feature":"5","num_nodes":"103","size_leaf_vector":"1"}},{"base_weights":[-1.3860038E-1,1.2691969E0,-5.397776E-1,-1.3965137E-1,1.3805815E0,1.2147906E-1,-6.233667E-1,7.037675E-1,-5.1388216E-1,9.054252E-1,1.3973241E0,-2.4916103E-1,9.1500777E-1,-3.898089E-1,-6.308431E-1,-1.8882222E-1,1.2005863E0,-5.8141905E-1,-1.5867893E-1,1.3823895E0,3.176788E-1,1.4086684E0,1.0576843E0,-4.7638208E-1,1.1340689E-1,6.538585E-1,1.3011882E0,-5.699487E-1,9.4239515E-1,-5.658588E-1,-6.3730454E-1,-4.2341945E-1,2.6872616E-2,1.3987497E0,7.03554E-1,-6.1758727E-1,-3.8050345E-1,7.942743E-1,-3.9852783E-1,1.444464E0,1.1464438E0,1.3132898E0,1.7062773E-1,1.4145185E0,1.318121E0,1.3083128E0,-1.2275962E-3,6.151487E-2,-5.242702E-1,4.5509136E-1,-3.805083E-1,9.3232685E-1,1.4311199E-1,1.1500379E0,1.393293E0,-5.893009E-1,-1.1157062E-2,1.8891917E-1,1.3306803E0,-5.8738714E-1,-2.2126797E-1,-6.226371E-1,-6.3773227E-1,8.040815E-2,-5.226435E-2,-2.0430129E-2,9.7776495E-2,1.2711279E-1,1.4694451E-1,3.7162658E-2,1.4553459E-1,-3.449664E-2,-6.265163E-2,-7.1827048E-3,-5.4314554E-2,-7.300762E-3,9.922677E-2,-4.9235143E-2,1.1181976E-1,1.4488478E-1,4.1500334E-2,1.2009731E-2,1.3083822E-1,-5.4524537E-2,1.451274E-1,-1.2424891E-2,7.573918E-2,1.4165595E-1,1.3385712E-1,7.203075E-2,1.3373782E-1,1.3998625E-1,8.075601E-2,-1.0225389E-2,1.4598158E-1,-5.3961903E-2,5.2620318E-2,-6.0133535E-2,-4.3009922E-2,5.8083422E-2,-6.0263712E-2,-8.190915E-3,-5.9497546E-2,7.221215E-2,1.1085688E-1,-1.9239264E-2,6.764653E-2,1.1659509E-1,-2.551013E-2,1.396079E-1,7.624628E-2,-5.0000317E-2,-6.324584E-2,-5.0157435E-2,8.8681795E-2,-1.109565E-2,5.539613E-2,9.131959E-2,1.3895981E-1,-5.1419552E-2,-6.280774E-2,1.20796345E-1,-5.8765586E-2,-4.8611727E-2,-6.370325E-2,-6.390735E-2,-6.3424766E-2],"categories":[],"categories_nodes":[],"categories_segments":[],"categories_sizes":[],"default_left":[0,0,0,0,0,0,0,0,0,0,0,0,0,0,0,0,0,0,0,0,0,0,0,0,0,0,0,0,0,0,0,0,0,0,0,0,0,0,0,0,0,0,0,0,0,0,0,0,0,0,0,0,0,0,0,0,0,0,0,0,0,0,0,0,0,0,0,0,0,0,0,0,0,0,0,0,0,0,0,0,0,0,0,0,0,0,0,0,0,0,0,0,0,0,0,0,0,0,0,0,0,0,0,0,0,0,0,0,0,0,0,0,0,0,0,0,0,0,0,0,0,0,0,0,0,0,0],"id":10,"left_children":[1,3,5,7,9,11,13,15,17,19,21,23,25,27,29,31,33,35,37,39,41,43,45,47,49,51,53,55,57,59,61,63,65,67,69,71,73,75,77,79,81,83,85,87,89,91,93,95,97,99,101,103,105,107,109,111,113,115,117,119,121,123,125,-1,-1,-1,-1,-1,-1,-1,-1,-1,-1,-1,-1,-1,-1,-1,-1,-1,-1,-1,-1,-1,-1,-1,-1,-1,-1,-1,-1,-1,-1,-1,-1,-1,-1,-1,-1,-1,-1,-1,-1,-1,-1,-1,-1,-1,-1,-1,-1,-1,-1,-1,-1,-1,-1,-1,-1,-1,-1,-1,-1,-1,-1,-1,-1],"loss_changes":[1.1756421E5,7.2444297E3,8.954258E3,1.0682294E3,3.3907812E2,5.3474033E3,2.508789E2,4.6152087E2,5.6139343E1,4.0856384E2,1.5773438E2,1.0210443E3,5.8291846E2,1.0717029E3,5.8152344E1,1.8876797E1,6.484924E1,1.4074463E1,8.622417E1,1.0135498E1,9.565515E1,1.93125E1,3.5553796E2,1.9628406E2,8.060833E2,4.912954E2,3.0893066E1,4.2518555E1,1.5540372E2,9.343042E1,4.0234375E-1,2.2178959E1,4.3103977E1,2.4346924E0,4.7505173E1,3.842041E0,1.517329E1,1.310767E1,4.3376465E1,2.2579346E0,2.8519867E1,2.2366135E1,9.902142E1,3.921875E0,2.7140625E1,4.8530396E1,3.8141243E1,1.7451807E2,5.0513916E1,3.758335E2,1.2503665E2,8.20332E1,2.1850073E2,2.01875E1,1.4765625E0,1.4331665E1,5.8861893E1,1.9995323E1,7.36322E0,3.502832E1,3.898906E2,6.8309326E0,1.640625E-1,0E0,0E0,0E0,0E0,0E0,0E0,0E0,0E0,0E0,0E0,0E0,0E0,0E0,0E0,0E0,0E0,0E0,0E0,0E0,0E0,0E0,0E0,0E0,0E0,0E0,0E0,0E0,0E0,0E0,0E0,0E0,0E0,0E0,0E0,0E0,0E0,0E0,0E0,0E0,0E0,0E0,0E0,0E0,0E0,0E0,0E0,0E0,0E0,0E0,0E0,0E0,0E0,0E0,0E0,0E0,0E0,0E0,0E0,0E0,0E0,0E0,0E0,0E0,0E0],"parents":[2147483647,0,0,1,1,2,2,3,3,4,4,5,5,6,6,7,7,8,8,9,9,10,10,11,11,12,12,13,13,14,14,15,15,16,16,17,17,18,18,19,19,20,20,21,21,22,22,23,23,24,24,25,25,26,26,27,27,28,28,29,29,30,30,31,31,32,32,33,33,34,34,35,35,36,36,37,37,38,38,39,39,40,40,41,41,42,42,43,43,44,44,45,45,46,46,47,47,48,48,49,49,50,50,51,51,52,52,53,53,54,54,55,55,56,56,57,57,58,58,59,59,60,60,61,61,62,62],"right_children":[2,4,6,8,10,12,14,16,18,20,22,24,26,28,30,32,34,36,38,40,42,44,46,48,50,52,54,56,58,60,62,64,66,68,70,72,74,76,78,80,82,84,86,88,90,92,94,96,98,100,102,104,106,108,110,112,114,116,118,120,122,124,126,-1,-1,-1,-1,-1,-1,-1,-1,-1,-1,-1,-1,-1,-1,-1,-1,-1,-1,-1,-1,-1,-1,-1,-1,-1,-1,-1,-1,-1,-1,-1,-1,-1,-1,-1,-1,-1,-1,-1,-1,-1,-1,-1,-1,-1,-1,-1,-1,-1,-1,-1,-1,-1,-1,-1,-1,-1,-1,-1,-1,-1,-1,-1,-1],"split_conditions":[-2.317004E0,-3.5947092E0,7.127871E-2,-4.7557096E0,-2.2256756E0,3.630654E-2,2.2241546E-1,-6.7738314E0,-4.652468E0,-3.3732839E0,2.94081E0,-1.7710184E0,-6.1996565E-3,3.122084E-1,2.6231387E-1,-7.768057E0,-5.1877127E0,2.3033091E-1,-3.9959197E0,-4.036289E0,-2.7599389E-2,-2.534055E0,-3.3978367E0,-2.7599389E-2,-6.787494E-1,-1.025843E0,8.092612E-2,3.117003E-1,-1.1503156E-2,2.3033091E-1,-3.0929518E-1,-5.9091945E0,3.1945543E0,-5.8859057E0,-4.652468E0,6.993049E-1,-4.036289E0,-4.2502046E0,4.013403E-1,5.26177E0,-3.3701603E0,1.0931167E-1,-2.647185E0,1.4426084E0,-1.6788064E0,-3.9520662E0,4.013403E-1,6.993049E-1,-2.728606E0,2.6545763E0,1.1179117E0,3.1212276E-1,3.1221217E-1,3.223327E0,3.0889142E0,4.3400836E-1,-1.2019061E-2,-2.5927857E-2,7.556074E-2,1.0931167E-1,6.993049E-1,-2.7599389E-2,1.4426084E0,8.040815E-2,-5.226435E-2,-2.0430129E-2,9.7776495E-2,1.2711279E-1,1.4694451E-1,3.7162658E-2,1.4553459E-1,-3.449664E-2,-6.265163E-2,-7.1827048E-3,-5.4314554E-2,-7.300762E-3,9.922677E-2,-4.9235143E-2,1.1181976E-1,1.4488478E-1,4.1500334E-2,1.2009731E-2,1.3083822E-1,-5.4524537E-2,1.451274E-1,-1.2424891E-2,7.573918E-2,1.4165595E-1,1.3385712E-1,7.203075E-2,1.3373782E-1,1.3998625E-1,8.075601E-2,-1.0225389E-2,1.4598158E-1,-5.3961903E-2,5.2620318E-2,-6.0133535E-2,-4.3009922E-2,5.8083422E-2,-6.0263712E-2,-8.190915E-3,-5.9497546E-2,7.221215E-2,1.1085688E-1,-1.9239264E-2,6.764653E-2,1.1659509E-1,-2.551013E-2,1.396079E-1,7.624628E-2,-5.0000317E-2,-6.324584E-2,-5.0157435E-2,8.8681795E-2,-1.109565E-2,5.539613E-2,9.131959E-2,1.3895981E-1,-5.1419552E-2,-6.280774E-2,1.20796345E-1,-5.8765586E-2,-4.8611727E-2,-6.370325E-2,-6.390735E-2,-6.3424766E-2],"split_indices":[4,2,4,4,2,2,4,2,2,4,1,2,3,2,4,2,4,3,4,4,3,4,4,3,4,4,3,2,3,3,1,4,3,2,2,1,4,2,3,1,2,1,2,1,2,4,3,1,2,1,1,2,2,1,1,1,3,3,3,1,1,3,1,0,0,0,0,0,0,0,0,0,0,0,0,0,0,0,0,0,0,0,0,0,0,0,0,0,0,0,0,0,0,0,0,0,0,0,0,0,0,0,0,0,0,0,0,0,0,0,0,0,0,0,0,0,0,0,0,0,0,0,0,0,0,0,0],"split_type":[0,0,0,0,0,0,0,0,0,0,0,0,0,0,0,0,0,0,0,0,0,0,0,0,0,0,0,0,0,0,0,0,0,0,0,0,0,0,0,0,0,0,0,0,0,0,0,0,0,0,0,0,0,0,0,0,0,0,0,0,0,0,0,0,0,0,0,0,0,0,0,0,0,0,0,0,0,0,0,0,0,0,0,0,0,0,0,0,0,0,0,0,0,0,0,0,0,0,0,0,0,0,0,0,0,0,0,0,0,0,0,0,0,0,0,0,0,0,0,0,0,0,0,0,0,0,0],"sum_hessian":[2.0815852E5,4.616294E4,1.6199558E5,3.3822542E3,4.2780688E4,1.817965E4,1.4381592E5,1.0392267E3,2.3430273E3,1.4579839E3,4.1322703E4,1.2392205E4,5.787445E3,4.4625083E3,1.3935342E5,3.7182397E2,6.674027E2,1.9681705E3,3.748568E2,8.0409644E2,6.538874E2,3.9984047E4,1.3386572E3,7.617813E3,4.774392E3,3.4542493E3,2.3331956E3,3.9314695E3,5.3103864E2,1.2610922E4,1.267425E5,1.7764645E2,1.9417754E2,4.7586462E2,1.9153812E2,1.6661595E3,3.0201108E2,7.4911476E1,2.999453E2,6.3255646E2,1.7153996E2,8.3129234E1,5.707582E2,3.75438E4,2.440245E3,1.0822656E3,2.5639157E2,6.227352E2,6.995078E3,2.8221453E3,1.9522467E3,2.23491E3,1.2193394E3,8.885346E2,1.444661E3,3.7998186E3,1.316508E2,1.8109885E2,3.499398E2,1.1868719E4,7.4220337E2,3.6324153E3,1.2311008E5,1.2754672E1,1.6489178E2,1.5683429E2,3.7343243E1,1.7640024E2,2.9946436E2,1.3390942E2,5.7628693E1,5.4096577E1,1.6120629E3,1.0471513E2,1.9729593E2,1.4040474E1,6.0871002E1,2.8310785E2,1.6837473E1,6.294686E2,3.0878696E0,2.3614643E1,1.4792531E2,5.5412774E0,7.758795E1,3.80385E2,1.9037315E2,3.6544055E4,9.9974774E2,7.735245E1,2.3628926E3,9.134666E2,1.68799E2,2.4067941E2,1.5712168E1,2.714363E2,3.5129892E2,3.843967E3,3.1511108E3,2.5226975E3,2.9944772E2,8.166375E2,1.1356091E3,1.0215707E3,1.2133391E3,7.4889075E2,4.7044864E2,8.787531E2,9.781495E0,1.437101E3,7.5600014E0,1.2421844E3,2.5576343E3,8.543373E1,4.6217075E1,9.9806015E1,8.129284E1,4.5318417E1,3.0462137E2,4.245594E3,7.623124E3,1.509745E2,5.912289E2,3.4980273E2,3.2826125E3,8.876314E4,3.4346938E4],"tree_param":{"num_deleted":"0","num_feature":"5","num_nodes":"127","size_leaf_vector":"1"}},{"base_weights":[-9.215081E-2,-6.243418E-1,1.1148826E0,-6.3861614E-1,1.7760319E-1,-5.0790066E-1,1.4434658E0,-6.4494365E-1,-4.570767E-1,-4.8045406E-1,7.756941E-1,-6.130517E-1,-2.1132646E-2,-3.2386217E-2,1.5265546E0,-6.486652E-1,-6.394788E-2,-6.347821E-1,2.3644097E-1,-6.205428E-1,-1.6364646E-1,-5.708021E-1,1.3592966E0,-6.2378263E-1,6.500588E-1,-4.6522775E-1,1.2579079E0,1.3153497E0,-3.7789127E-1,9.015534E-1,1.547473E0,-6.383177E-2,-6.5282303E-1,-6.4654833E-1,-2.1759851E-1,-5.002013E-1,1.2978867E0,-2.410124E-1,-6.5607026E-2,-6.35285E-2,7.582818E-1,-5.9548557E-1,-1.6160533E-1,-6.319716E-2,1.4953171E0,-6.368155E-1,-5.232934E-1,-3.2390004E-1,1.6828732E-1,-5.793726E-1,1.4832076E-1,3.5325664E-1,1.5475284E0,8.199848E-1,1.702771E-1,-5.91354E-1,4.0840432E-2,-1.3164486E-1,1.3713715E0,1.556734E0,1.0436064E-1,-6.385872E-2,-6.577011E-2,-6.48698E-2,-5.0983734E-2,-6.265893E-2,9.112828E-3,-6.318999E-2,1.6511947E-2,-6.1930817E-2,1.4121518E-1,-6.256258E-2,4.346926E-2,9.9816464E-2,-6.608644E-2,-3.557573E-2,-6.172041E-2,1.0914582E-1,-6.4508624E-2,1.5134871E-1,-6.5073214E-2,-6.3756466E-2,-4.865126E-2,-6.119298E-2,1.0847324E-1,-6.1650164E-2,4.7919612E-2,-6.1542567E-2,-3.0981014E-2,-5.5866458E-2,1.0781554E-1,1.02251865E-1,-2.3499083E-2,1.20795086E-1,1.7529246E-1,-2.8557483E-2,1.20212875E-1,-2.3831649E-2,-6.1977357E-2,-2.4732899E-2,1.1822521E-1,1.2410575E-1,-6.642359E-2,-4.2859834E-2,1.4757614E-1,1.5247501E-1,1.7350002E-1,-6.441229E-2,1.4587371E-1],"categories":[],"categories_nodes":[],"categories_segments":[],"categories_sizes":[],"default_left":[0,0,0,0,0,0,0,0,0,0,0,0,0,0,0,0,0,0,0,0,0,0,0,0,0,0,0,0,0,0,0,0,0,0,0,0,0,0,0,0,0,0,0,0,0,0,0,0,0,0,0,0,0,0,0,0,0,0,0,0,0,0,0,0,0,0,0,0,0,0,0,0,0,0,0,0,0,0,0,0,0,0,0,0,0,0,0,0,0,0,0,0,0,0,0,0,0,0,0,0,0,0,0,0,0,0,0,0,0],"id":11,"left_children":[1,3,5,7,9,11,13,15,17,19,21,23,25,27,29,31,-1,33,35,37,39,41,43,45,47,49,51,53,55,57,59,-1,61,63,65,67,69,71,-1,-1,73,75,77,-1,79,81,83,85,-1,87,89,91,93,95,-1,97,99,101,103,105,107,-1,-1,-1,-1,-1,-1,-1,-1,-1,-1,-1,-1,-1,-1,-1,-1,-1,-1,-1,-1,-1,-1,-1,-1,-1,-1,-1,-1,-1,-1,-1,-1,-1,-1,-1,-1,-1,-1,-1,-1,-1,-1,-1,-1,-1,-1,-1,-1],"loss_changes":[1.3479753E5,1.6672031E3,3.4239117E4,1.6407031E2,1.0030764E3,5.534385E2,6.5481562E3,2.3984375E0,5.945039E2,5.376114E1,1.0498623E3,1.2093091E2,1.0922502E3,1.3262184E3,6.5953125E2,3.1171875E0,0E0,1.8705078E1,7.7037164E2,1.1183929E1,1.6287323E2,3.9880981E0,2.5328552E2,1.1215088E1,7.638799E1,1.000448E2,1.2930054E2,1.1013696E2,2.0264581E2,7.9604956E2,6.535547E2,0E0,3.6484375E0,7.663574E-1,1.3544811E1,5.108647E1,8.9285095E1,1.939469E1,0E0,0E0,4.3844177E1,1.7641144E0,1.5472677E1,0E0,3.5002075E1,5.6811523E-1,1.4574713E2,9.61092E0,0E0,1.1506775E1,1.4830278E2,4.806606E1,2.4045654E1,1.0891202E2,0E0,1.4917358E1,2.523617E2,3.7617468E2,2.1242212E2,2.7446094E2,3.182075E2,0E0,0E0,0E0,0E0,0E0,0E0,0E0,0E0,0E0,0E0,0E0,0E0,0E0,0E0,0E0,0E0,0E0,0E0,0E0,0E0,0E0,0E0,0E0,0E0,0E0,0E0,0E0,0E0,0E0,0E0,0E0,0E0,0E0,0E0,0E0,0E0,0E0,0E0,0E0,0E0,0E0,0E0,0E0,0E0,0E0,0E0,0E0,0E0],"parents":[2147483647,0,0,1,1,2,2,3,3,4,4,5,5,6,6,7,7,8,8,9,9,10,10,11,11,12,12,13,13,14,14,15,15,17,17,18,18,19,19,20,20,21,21,22,22,23,23,24,24,25,25,26,26,27,27,28,28,29,29,30,30,32,32,33,33,34,34,35,35,36,36,37,37,40,40,41,41,42,42,44,44,45,45,46,46,47,47,49,49,50,50,51,51,52,52,53,53,55,55,56,56,57,57,58,58,59,59,60,60],"right_children":[2,4,6,8,10,12,14,16,18,20,22,24,26,28,30,32,-1,34,36,38,40,42,44,46,48,50,52,54,56,58,60,-1,62,64,66,68,70,72,-1,-1,74,76,78,-1,80,82,84,86,-1,88,90,92,94,96,-1,98,100,102,104,106,108,-1,-1,-1,-1,-1,-1,-1,-1,-1,-1,-1,-1,-1,-1,-1,-1,-1,-1,-1,-1,-1,-1,-1,-1,-1,-1,-1,-1,-1,-1,-1,-1,-1,-1,-1,-1,-1,-1,-1,-1,-1,-1,-1,-1,-1,-1,-1,-1],"split_conditions":[1.289298E0,1.1179117E0,-2.2833815E0,9.2360985E-1,1.1550583E0,-3.2435956E0,-1.143366E0,3.1102198E-1,2.001873E0,5.8859473E-1,-6.787494E-1,6.9784546E0,3.6631763E0,1.1550583E0,1.4426084E0,-1.8623441E0,-6.394788E-2,1.7215219E0,9.1642305E-2,2.2241546E-1,-1.5755032E0,-8.5357964E-1,-1.5755032E0,-3.9219701E0,-4.652468E0,3.1351118E0,-1.3721293E0,3.1351118E0,-3.093202E0,1.8668243E-1,6.0041947E0,-6.383177E-2,-1.3721293E0,1.5569706E0,-1.5755032E0,-6.787494E-1,-1.5755032E0,-1.4642705E0,-6.5607026E-2,-6.35285E-2,2.4914776E-1,1.3704177E0,2.905257E0,-6.319716E-2,3.9386246E0,6.3672423E0,4.9317913E0,-6.7738314E0,1.6828732E-1,2.8329754E0,-2.728606E0,2.001873E0,4.2103696E0,-1.4642705E0,1.702771E-1,1.5569706E0,3.0412016E0,-2.7924713E-1,-7.311168E-1,3.0603936E-1,3.306498E0,-6.385872E-2,-6.577011E-2,-6.48698E-2,-5.0983734E-2,-6.265893E-2,9.112828E-3,-6.318999E-2,1.6511947E-2,-6.1930817E-2,1.4121518E-1,-6.256258E-2,4.346926E-2,9.9816464E-2,-6.608644E-2,-3.557573E-2,-6.172041E-2,1.0914582E-1,-6.4508624E-2,1.5134871E-1,-6.5073214E-2,-6.3756466E-2,-4.865126E-2,-6.119298E-2,1.0847324E-1,-6.1650164E-2,4.7919612E-2,-6.1542567E-2,-3.0981014E-2,-5.5866458E-2,1.0781554E-1,1.02251865E-1,-2.3499083E-2,1.20795086E-1,1.7529246E-1,-2.8557483E-2,1.20212875E-1,-2.3831649E-2,-6.1977357E-2,-2.4732899E-2,1.1822521E-1,1.2410575E-1,-6.642359E-2,-4.2859834E-2,1.4757614E-1,1.5247501E-1,1.7350002E-1,-6.441229E-2,1.4587371E-1],"split_indices":[1,1,2,1,0,2,4,2,0,0,4,1,1,0,1,2,0,0,4,4,2,4,2,2,2,1,4,1,4,0,0,0,4,0,2,4,2,2,0,0,2,0,0,0,0,1,1,2,0,1,2,0,1,2,0,0,1,2,4,2,1,0,0,0,0,0,0,0,0,0,0,0,0,0,0,0,0,0,0,0,0,0,0,0,0,0,0,0,0,0,0,0,0,0,0,0,0,0,0,0,0,0,0,0,0,0,0,0,0],"split_type":[0,0,0,0,0,0,0,0,0,0,0,0,0,0,0,0,0,0,0,0,0,0,0,0,0,0,0,0,0,0,0,0,0,0,0,0,0,0,0,0,0,0,0,0,0,0,0,0,0,0,0,0,0,0,0,0,0,0,0,0,0,0,0,0,0,0,0,0,0,0,0,0,0,0,0,0,0,0,0,0,0,0,0,0,0,0,0,0,0,0,0,0,0,0,0,0,0,0,0,0,0,0,0,0,0,0,0,0,0],"sum_hessian":[2.0984125E5,1.4563156E5,6.420968E4,1.430849E5,2.5466619E3,1.0811935E4,5.3397746E4,1.3826323E5,4.8216646E3,1.212638E3,1.3340239E3,8.891042E3,1.9208925E3,2.8460364E3,5.0551707E4,8.218066E4,5.6082582E4,3.8382458E3,9.8341846E2,8.4016693E2,3.7247104E2,4.0337442E2,9.3064954E2,8.8166455E3,7.439666E1,1.4263027E3,4.945897E2,5.8015967E2,2.2658767E3,1.6385626E3,4.8913145E4,2.360046E4,5.85802E4,3.7324263E3,1.0581949E2,5.808429E2,4.025756E2,7.258148E1,7.6758545E2,2.466177E2,1.2585334E2,3.7999704E2,2.3377363E1,5.9273373E1,8.7137616E2,7.799728E3,1.0169173E3,3.864256E1,3.57541E1,1.2026221E3,2.2368068E2,1.20480286E2,3.741094E2,2.5597778E2,3.241819E2,1.5005222E3,7.6535455E2,5.124127E2,1.1261499E3,4.8601176E4,3.1197134E2,1.4983944E4,4.3596254E4,3.6709592E3,6.1467094E1,4.5075462E1,6.0744026E1,4.8490695E2,9.5935936E1,2.2395348E1,3.8018024E2,4.6300957E1,2.6280529E1,1.0790967E2,1.7943666E1,3.3010296E1,3.4698676E2,6.1585126E0,1.7218851E1,8.6435266E2,7.023444E0,7.757821E3,4.19075E1,9.6437897E2,5.2538326E1,2.849352E1,1.014904E1,1.0596188E3,1.4300336E2,1.2729391E2,9.6386765E1,5.6013855E1,6.446643E1,1.4359224E2,2.3051718E2,6.581751E1,1.9016028E2,1.1249205E2,1.3880302E3,6.1170276E2,1.5365178E2,1.4286404E2,3.6954868E2,6.1561058E1,1.0645889E3,4.1215926E4,7.38525E3,2.0126727E2,1.1070407E2],"tree_param":{"num_deleted":"0","num_feature":"5","num_nodes":"109","size_leaf_vector":"1"}},{"base_weights":[-1.4969416E-1,1.1048903E0,-6.219659E-1,1.1623544E0,3.1878737E-1,-1.4047606E-1,-6.2446976E-1,1.2018152E0,5.230897E-1,-1.5186477E-1,5.977767E-1,1.1530448E-1,-5.851273E-1,-4.7408843E-1,-6.251681E-1,1.2056155E0,-1.053254E-1,7.059173E-1,-5.596659E-1,3.4023476E-1,-3.1961656E-1,7.602366E-1,-2.9764092E-1,-5.6656337E-1,3.2924283E-1,-3.7583342E-1,-6.2244672E-2,-3.711436E-1,-6.2552504E-2,-5.746073E-1,-6.2564796E-1,1.2284846E0,1.0686715E0,1.0250835E0,-6.465816E-2,4.8601067E-1,1.1805917E0,-2.9925632E-1,-6.173015E-1,1.7109646E-1,6.5306395E-1,-1.2785727E-1,-5.0613856E-1,9.167513E-1,3.3815977E-1,4.216539E-3,-6.30649E-2,-6.315452E-2,1.00105956E-1,9.995423E-1,3.9810505E-2,-6.343176E-2,5.57081E-1,-6.0156757E-1,1.6532718E-1,-6.300434E-2,-5.338184E-1,-6.267982E-2,-6.2218376E-2,1.24111354E-1,1.09143175E-1,1.225812E-1,-1.6313056E-2,1.2242714E-1,3.347032E-2,-6.666396E-2,7.977998E-2,1.212297E-1,2.9075056E-2,-4.3362365E-3,-4.6553373E-2,-4.700477E-2,-6.286365E-2,8.574047E-2,7.833403E-3,1.0037068E-1,1.7012317E-2,-2.3778263E-2,7.821484E-2,-5.8663547E-2,-2.016382E-2,1.2665425E-1,6.731391E-2,1.0891383E-1,-2.0836208E-3,3.198905E-2,-5.4302532E-2,8.4240064E-2,1.2807404E-1,-1.1771164E-2,7.714149E-2,9.807833E-2,-4.6281278E-2,-6.290897E-2,-4.829277E-2,4.1376397E-2,-6.131673E-2,-4.211174E-2,-6.2523074E-2],"categories":[],"categories_nodes":[],"categories_segments":[],"categories_sizes":[],"default_left":[0,0,0,0,0,0,0,0,0,0,0,0,0,0,0,0,0,0,0,0,0,0,0,0,0,0,0,0,0,0,0,0,0,0,0,0,0,0,0,0,0,0,0,0,0,0,0,0,0,0,0,0,0,0,0,0,0,0,0,0,0,0,0,0,0,0,0,0,0,0,0,0,0,0,0,0,0,0,0,0,0,0,0,0,0,0,0,0,0,0,0,0,0,0,0,0,0,0,0],"id":12,"left_children":[1,3,5,7,9,11,13,15,17,19,21,23,25,27,29,31,33,35,37,39,41,43,45,47,49,51,-1,53,-1,55,57,59,61,63,-1,65,67,69,71,73,75,77,79,81,83,85,-1,-1,-1,87,89,-1,91,93,95,-1,97,-1,-1,-1,-1,-1,-1,-1,-1,-1,-1,-1,-1,-1,-1,-1,-1,-1,-1,-1,-1,-1,-1,-1,-1,-1,-1,-1,-1,-1,-1,-1,-1,-1,-1,-1,-1,-1,-1,-1,-1,-1,-1],"loss_changes":[1.1966323E5,2.4946797E3,1.7680469E2,1.2977656E3,4.9431903E2,8.654459E1,1.503125E1,2.4094531E2,5.931336E2,1.15810814E2,3.4401794E2,7.072204E1,1.9360962E0,1.0350571E1,3.1640625E0,1.5007031E2,8.720881E1,2.668745E2,6.315811E0,1.8767365E1,3.7340202E1,1.3185645E2,3.655794E1,1.2432892E1,7.148665E1,1.1100371E1,0E0,5.0358704E1,0E0,2.780365E0,1.875E-1,7.0328125E1,1.340584E3,5.9415817E0,0E0,6.304126E2,2.251355E1,3.402018E0,2.9484558E-1,1.476302E1,2.0973E1,5.1901962E1,1.2867645E1,1.2346387E2,1.4635648E2,3.3297516E1,0E0,0E0,0E0,3.8323364E0,2.9885618E1,0E0,4.862338E0,6.255722E-1,2.4032257E1,0E0,7.985031E0,0E0,0E0,0E0,0E0,0E0,0E0,0E0,0E0,0E0,0E0,0E0,0E0,0E0,0E0,0E0,0E0,0E0,0E0,0E0,0E0,0E0,0E0,0E0,0E0,0E0,0E0,0E0,0E0,0E0,0E0,0E0,0E0,0E0,0E0,0E0,0E0,0E0,0E0,0E0,0E0,0E0,0E0],"parents":[2147483647,0,0,1,1,2,2,3,3,4,4,5,5,6,6,7,7,8,8,9,9,10,10,11,11,12,12,13,13,14,14,15,15,16,16,17,17,18,18,19,19,20,20,21,21,22,22,23,23,24,24,25,25,27,27,29,29,30,30,31,31,32,32,33,33,35,35,36,36,37,37,38,38,39,39,40,40,41,41,42,42,43,43,44,44,45,45,49,49,50,50,52,52,53,53,54,54,56,56],"right_children":[2,4,6,8,10,12,14,16,18,20,22,24,26,28,30,32,34,36,38,40,42,44,46,48,50,52,-1,54,-1,56,58,60,62,64,-1,66,68,70,72,74,76,78,80,82,84,86,-1,-1,-1,88,90,-1,92,94,96,-1,98,-1,-1,-1,-1,-1,-1,-1,-1,-1,-1,-1,-1,-1,-1,-1,-1,-1,-1,-1,-1,-1,-1,-1,-1,-1,-1,-1,-1,-1,-1,-1,-1,-1,-1,-1,-1,-1,-1,-1,-1,-1,-1],"split_conditions":[-1.6788064E0,2.8370938E0,-1.5755032E0,-2.001367E0,1.5812944E0,1.289298E0,-1.4642705E0,6.9784546E0,1.8243753E0,3.449367E0,-2.2833815E0,1.8668243E-1,1.7079049E0,1.5812944E0,-1.3021629E0,2.4512084E0,-4.652468E0,1.0931167E-1,2.297898E0,9.2360985E-1,4.5260973E0,4.953834E0,3.6189167E0,1.1179117E0,5.8859473E-1,4.2422493E-3,-6.2244672E-2,1.0931167E-1,-6.2552504E-2,1.0931167E-1,1.4426084E0,1.5569706E0,-2.8110387E0,-6.7738314E0,-6.465816E-2,1.8668243E-1,1.7079049E0,-1.8623441E0,-2.4730956E-2,-2.6897758E-2,-2.8935678E0,2.0480424E-1,9.2360985E-1,-4.9856997E0,-7.768057E0,2.5222032E0,-6.30649E-2,-6.315452E-2,1.00105956E-1,1.0931167E-1,4.3400836E-1,-6.343176E-2,2.6898975E0,2.123434E0,2.123434E0,-6.300434E-2,1.5569706E0,-6.267982E-2,-6.2218376E-2,1.24111354E-1,1.09143175E-1,1.225812E-1,-1.6313056E-2,1.2242714E-1,3.347032E-2,-6.666396E-2,7.977998E-2,1.212297E-1,2.9075056E-2,-4.3362365E-3,-4.6553373E-2,-4.700477E-2,-6.286365E-2,8.574047E-2,7.833403E-3,1.0037068E-1,1.7012317E-2,-2.3778263E-2,7.821484E-2,-5.8663547E-2,-2.016382E-2,1.2665425E-1,6.731391E-2,1.0891383E-1,-2.0836208E-3,3.198905E-2,-5.4302532E-2,8.4240064E-2,1.2807404E-1,-1.1771164E-2,7.714149E-2,9.807833E-2,-4.6281278E-2,-6.290897E-2,-4.829277E-2,4.1376397E-2,-6.131673E-2,-4.211174E-2,-6.2523074E-2],"split_indices":[2,0,2,2,1,1,2,1,1,0,2,0,1,1,2,1,2,1,1,1,0,0,0,1,0,3,0,1,0,1,1,0,2,2,0,0,1,2,3,3,2,3,1,2,2,1,0,0,0,1,1,0,0,0,0,0,0,0,0,0,0,0,0,0,0,0,0,0,0,0,0,0,0,0,0,0,0,0,0,0,0,0,0,0,0,0,0,0,0,0,0,0,0,0,0,0,0,0,0],"split_type":[0,0,0,0,0,0,0,0,0,0,0,0,0,0,0,0,0,0,0,0,0,0,0,0,0,0,0,0,0,0,0,0,0,0,0,0,0,0,0,0,0,0,0,0,0,0,0,0,0,0,0,0,0,0,0,0,0,0,0,0,0,0,0,0,0,0,0,0,0,0,0,0,0,0,0,0,0,0,0,0,0,0,0,0,0,0,0,0,0,0,0,0,0,0,0,0,0,0,0],"sum_hessian":[2.0195945E5,5.52328E4,1.4672666E5,5.1469887E4,3.7629158E3,7.593513E2,1.459673E5,4.8476617E4,2.9932698E3,1.4005902E3,2.3623254E3,4.82525E2,2.7682632E2,6.778318E2,1.4528947E5,4.8336164E4,1.4045184E2,2.5611562E3,4.3211346E2,3.5580594E2,1.0447843E3,1.9996672E3,3.626582E2,1.1484401E2,3.6768097E2,4.356683E1,2.3325949E2,4.055765E2,2.7225528E2,1.3773606E3,1.4391211E5,4.1412477E4,6.9236865E3,4.5186443E1,9.52654E1,1.7516688E3,8.0948755E2,7.9429E1,3.5268448E2,2.3194597E2,1.2385997E2,5.159908E2,5.287935E2,1.4578827E3,5.4178467E2,1.9074419E2,1.71914E2,1.1084629E2,3.9977202E0,1.1014395E2,2.5753702E2,3.436526E1,9.2015705E0,2.8363065E2,1.2194587E2,5.777274E2,7.996331E2,1.07904805E5,3.60073E4,3.791106E4,3.5014194E3,6.140367E3,7.8331946E2,3.4468338E1,1.0718102E1,3.7269995E2,1.3789689E3,7.812876E2,2.819994E1,3.1780668E1,4.764833E1,2.8243176E1,3.2444128E2,2.6635874E1,2.0531009E2,7.113415E1,5.272582E1,4.6103778E2,5.495298E1,4.1749823E2,1.1129527E2,5.967864E2,8.6109625E2,1.7457013E2,3.6721454E2,1.2122916E2,6.951503E1,7.3221436E1,3.692251E1,2.1260092E2,4.493611E1,6.5279574E0,2.6736126E0,2.2673105E2,5.68996E1,9.27997E1,2.914617E1,3.606274E2,4.3900574E2],"tree_param":{"num_deleted":"0","num_feature":"5","num_nodes":"99","size_leaf_vector":"1"}},{"base_weights":[3.346819E-1,6.7673224E-1,-5.623117E-1,-5.1706463E-1,1.0371865E0,-7.224199E-2,-6.5143514E-1,-6.219048E-1,-2.0806159E-1,3.6584213E-1,1.113989E0,6.939198E-1,-5.234578E-1,-6.7576313E-1,-6.333272E-1,-6.27672E-2,-5.2544564E-1,-2.0896323E-2,-5.3806233E-1,1.1176664E0,3.2490274E-1,1.1335503E0,-5.934418E-1,7.808702E-1,-1.04565986E-1,-4.7592348E-1,-6.3458845E-2,-6.823897E-1,-6.3552044E-2,-6.4165495E-2,-6.300298E-2,4.28984E-1,-6.306494E-2,-1.7222379E-1,3.2483986E-1,-4.058321E-1,-6.1226535E-1,1.2794849E0,-6.2257636E-2,7.6442045E-1,3.022035E-1,1.1555241E0,8.5972345E-1,-2.0469029E-1,-6.245489E-1,-1.0721976E-1,7.879805E-1,8.15121E-2,-5.6572694E-1,-4.222908E-1,-6.4338766E-2,-6.36813E-2,-6.8369037E-1,1.3321781E-1,2.5404802E-2,5.8036E-2,-2.2355508E-2,1.0572808E-1,2.2392819E-2,-6.0447123E-2,2.1686764E-2,-6.278547E-2,-5.5029687E-2,1.2526071E-1,1.39687E-1,8.954807E-2,-1.5325019E-2,3.1254735E-2,-2.7218735E-2,1.170673E-1,9.845038E-2,9.26927E-2,6.38E-2,-4.4269692E-2,3.6859717E-2,-4.8218388E-2,-6.303E-2,-2.4919873E-2,-3.3072152E-3,8.354166E-2,6.478195E-2,2.398795E-2,-1.1014204E-2,-5.7455983E-2,-3.1369615E-3,-1.6317131E-2,-4.674654E-2,-6.925401E-2,-6.774255E-2],"categories":[],"categories_nodes":[],"categories_segments":[],"categories_sizes":[],"default_left":[0,0,0,0,0,0,0,0,0,0,0,0,0,0,0,0,0,0,0,0,0,0,0,0,0,0,0,0,0,0,0,0,0,0,0,0,0,0,0,0,0,0,0,0,0,0,0,0,0,0,0,0,0,0,0,0,0,0,0,0,0,0,0,0,0,0,0,0,0,0,0,0,0,0,0,0,0,0,0,0,0,0,0,0,0,0,0,0,0],"id":13,"left_children":[1,3,5,7,9,11,13,15,17,19,21,23,25,27,29,-1,31,33,35,37,39,41,43,45,47,49,-1,51,-1,-1,-1,53,-1,55,57,59,61,63,-1,65,67,69,71,73,75,77,79,81,83,85,-1,-1,87,-1,-1,-1,-1,-1,-1,-1,-1,-1,-1,-1,-1,-1,-1,-1,-1,-1,-1,-1,-1,-1,-1,-1,-1,-1,-1,-1,-1,-1,-1,-1,-1,-1,-1,-1,-1],"loss_changes":[6.884734E4,6.99026E4,2.705545E3,1.2203682E3,6.4329844E3,3.2959846E3,2.266211E1,1.5317383E1,5.895741E2,3.9392737E2,3.7402344E3,2.4543018E2,3.1394287E1,5.526367E0,4.21875E-1,0E0,1.6023233E2,3.187898E2,3.3647583E1,1.8697333E2,1.2098743E2,6.650781E2,1.5216309E1,2.0208618E1,2.9900547E1,3.7510437E1,0E0,7.0214844E-1,0E0,0E0,0E0,2.4746199E1,0E0,1.6384998E2,1.3687236E2,1.540946E2,1.7903442E0,1.59729E-1,0E0,7.1822205E1,6.873865E1,2.643125E2,1.2199707E2,1.3193239E1,6.5753174E-1,2.675026E-1,2.0480103E1,7.5766754E0,4.5466614E-1,3.7254333E1,0E0,0E0,5.6347656E-1,0E0,0E0,0E0,0E0,0E0,0E0,0E0,0E0,0E0,0E0,0E0,0E0,0E0,0E0,0E0,0E0,0E0,0E0,0E0,0E0,0E0,0E0,0E0,0E0,0E0,0E0,0E0,0E0,0E0,0E0,0E0,0E0,0E0,0E0,0E0,0E0],"parents":[2147483647,0,0,1,1,2,2,3,3,4,4,5,5,6,6,7,7,8,8,9,9,10,10,11,11,12,12,13,13,14,14,16,16,17,17,18,18,19,19,20,20,21,21,22,22,23,23,24,24,25,25,27,27,31,31,33,33,34,34,35,35,36,36,37,37,39,39,40,40,41,41,42,42,43,43,44,44,45,45,46,46,47,47,48,48,49,49,52,52],"right_children":[2,4,6,8,10,12,14,16,18,20,22,24,26,28,30,-1,32,34,36,38,40,42,44,46,48,50,-1,52,-1,-1,-1,54,-1,56,58,60,62,64,-1,66,68,70,72,74,76,78,80,82,84,86,-1,-1,88,-1,-1,-1,-1,-1,-1,-1,-1,-1,-1,-1,-1,-1,-1,-1,-1,-1,-1,-1,-1,-1,-1,-1,-1,-1,-1,-1,-1,-1,-1,-1,-1,-1,-1,-1,-1],"split_conditions":[9.2360985E-1,-3.2520533E-1,1.4426084E0,-2.317004E0,-2.7599389E-2,1.8668243E-1,-1.7301926E-2,-2.4887733E0,1.7215219E0,-3.0929518E-1,3.4937222E0,-6.1996565E-3,2.123434E0,1.3704177E0,-5.4773903E-3,-6.27672E-2,9.003421E-1,-1.2636957E0,2.5253463E0,3.6189167E0,2.6248443E-1,-1.4350951E-2,3.873633E0,-2.7599389E-2,2.0957543E-2,1.289298E0,-6.3458845E-2,-2.7599389E-2,-6.3552044E-2,-6.4165495E-2,-6.300298E-2,-2.7351756E-2,-6.306494E-2,-3.0929518E-1,-2.7516844E-2,-1.2636957E0,-6.787494E-1,9.003421E-1,-6.2257636E-2,1.0931167E-1,1.0931167E-1,1.0931167E-1,1.3652341E-2,2.0847742E-1,3.9700208E0,1.1179117E0,-1.7301926E-2,1.1179117E0,1.6708164E-1,-2.3554694E-2,-6.4338766E-2,-6.36813E-2,-2.5308771E-2,1.3321781E-1,2.5404802E-2,5.8036E-2,-2.2355508E-2,1.0572808E-1,2.2392819E-2,-6.0447123E-2,2.1686764E-2,-6.278547E-2,-5.5029687E-2,1.2526071E-1,1.39687E-1,8.954807E-2,-1.5325019E-2,3.1254735E-2,-2.7218735E-2,1.170673E-1,9.845038E-2,9.26927E-2,6.38E-2,-4.4269692E-2,3.6859717E-2,-4.8218388E-2,-6.303E-2,-2.4919873E-2,-3.3072152E-3,8.354166E-2,6.478195E-2,2.398795E-2,-1.1014204E-2,-5.7455983E-2,-3.1369615E-3,-1.6317131E-2,-4.674654E-2,-6.925401E-2,-6.774255E-2],"split_indices":[1,4,1,4,3,0,3,4,0,1,0,3,0,0,3,0,0,4,0,0,4,3,0,3,3,1,0,3,0,0,0,3,0,1,3,4,4,0,0,1,1,1,3,4,0,1,3,1,3,3,0,0,3,0,0,0,0,0,0,0,0,0,0,0,0,0,0,0,0,0,0,0,0,0,0,0,0,0,0,0,0,0,0,0,0,0,0,0,0],"split_type":[0,0,0,0,0,0,0,0,0,0,0,0,0,0,0,0,0,0,0,0,0,0,0,0,0,0,0,0,0,0,0,0,0,0,0,0,0,0,0,0,0,0,0,0,0,0,0,0,0,0,0,0,0,0,0,0,0,0,0,0,0,0,0,0,0,0,0,0,0,0,0,0,0,0,0,0,0,0,0,0,0,0,0,0,0,0,0,0,0],"sum_hessian":[2.2439005E5,1.6244514E5,6.194491E4,3.7673375E4,1.24771766E5,9.532063E3,5.2412848E4,2.8128705E4,9.544671E3,1.280928E4,1.11962484E5,3.5328198E3,5.9992437E3,2.2349742E4,3.0063105E4,2.6536613E4,1.5920924E3,6.0910796E3,3.453591E3,6.601304E2,1.2149149E4,1.1069463E5,1.2678499E3,3.1859143E3,3.4690533E2,4.2056323E3,1.7936118E3,1.9176145E4,3.1735974E3,8.472255E3,2.159085E4,1.577624E2,1.43433E3,4.237043E3,1.8540365E3,1.243728E3,2.209863E3,6.0421173E2,5.5918587E1,5.950337E2,1.1554116E4,1.0246859E5,8.22604E3,9.4495964E1,1.1733539E3,2.5192995E1,3.1607214E3,2.4775829E2,9.914703E1,3.1881167E3,1.01751544E3,5.456698E2,1.8630475E4,2.4524939E1,1.3323746E2,2.6988403E2,3.9671592E3,2.2335992E2,1.6306766E3,9.429572E2,3.007708E2,1.758378E3,4.5148508E2,5.0113687E2,1.0307488E2,5.2069336E2,7.434038E1,1.1350174E4,2.0394179E2,9.412522E4,8.343374E3,6.310246E3,1.9157933E3,6.693497E1,2.7560999E1,4.885348E1,1.1245005E3,7.833139E0,1.7359856E1,2.3577903E3,8.029311E2,1.3552216E2,1.1223613E2,9.746078E1,1.6862569E0,4.7398312E2,2.7141335E3,7.67673E3,1.0953745E4],"tree_param":{"num_deleted":"0","num_feature":"5","num_nodes":"89","size_leaf_vector":"1"}},{"base_weights":[-1.3076396E-1,1.130143E0,-5.247489E-1,-1.3244374E-1,1.2208402E0,9.919047E-2,-6.1326015E-1,6.2005675E-1,-4.7991088E-1,7.9721767E-1,1.237078E0,-2.3746476E-1,8.024828E-1,-4.8121145E-1,-6.219163E-1,-1.4230904E-1,1.0360017E0,-5.6092477E-1,-6.334225E-2,1.2158686E0,2.958362E-1,1.2466375E0,9.7002023E-1,-4.7814703E-1,5.9641186E-2,5.2903414E-1,1.1173788E0,-5.7894945E-1,4.1508976E-1,-5.80785E-1,-6.24529E-1,4.7906768E-1,-2.4610601E-1,1.2204628E0,5.6008285E-1,-5.9459E-1,-3.7280872E-1,9.758624E-1,-3.07539E-1,1.2789572E0,9.3391776E-1,-1.1195132E-1,5.761885E-1,1.2511629E0,1.1753366E0,1.1670779E0,7.870457E-3,-1.9128034E-2,-5.201587E-1,4.1780502E-1,-3.7948358E-1,8.158444E-1,3.2372106E-2,9.7143936E-1,1.2209802E0,-4.8084763E-1,-6.1590844E-1,-2.5396365E-1,1.1864878E0,-6.0579646E-1,-4.7856998E-1,-6.0554385E-1,-6.250594E-1,8.541658E-3,1.4085123E-1,-3.948356E-2,5.1282584E-3,1.10704735E-1,1.2873077E-1,2.9703593E-2,1.3089666E-1,-4.316748E-2,-6.1311908E-2,1.7094579E-2,-4.677649E-2,1.2564008E-1,5.525977E-2,-4.6921734E-2,9.2964925E-2,1.2855266E-1,6.1544657E-2,4.207679E-3,1.172657E-1,1.1887769E-1,-2.6347399E-2,9.8350964E-2,3.064481E-2,1.2528501E-1,1.1834296E-1,6.41106E-2,1.1899803E-1,1.2331911E-1,7.933378E-2,-8.63319E-3,1.28688E-1,-5.1411904E-2,3.844559E-2,-5.6059267E-2,-3.6460187E-2,5.1623326E-2,-5.279041E-2,-1.1440198E-2,-5.7373285E-2,8.530295E-2,-1.1204665E-2,-4.018962E-2,4.1959096E-2,1.0330232E-1,4.848956E-2,-4.7615148E-2,1.2243792E-1,-5.212583E-2,3.3403695E-2,-6.172576E-2,6.2413204E-2,1.622496E-2,-4.179021E-2,9.8396E-2,1.2306633E-1,-6.197064E-2,-5.891596E-2,2.551618E-2,-5.7454724E-2,-4.489048E-2,-6.2332757E-2,-6.155738E-2,-6.2543444E-2],"categories":[],"categories_nodes":[],"categories_segments":[],"categories_sizes":[],"default_left":[0,0,0,0,0,0,0,0,0,0,0,0,0,0,0,0,0,0,0,0,0,0,0,0,0,0,0,0,0,0,0,0,0,0,0,0,0,0,0,0,0,0,0,0,0,0,0,0,0,0,0,0,0,0,0,0,0,0,0,0,0,0,0,0,0,0,0,0,0,0,0,0,0,0,0,0,0,0,0,0,0,0,0,0,0,0,0,0,0,0,0,0,0,0,0,0,0,0,0,0,0,0,0,0,0,0,0,0,0,0,0,0,0,0,0,0,0,0,0,0,0,0,0,0,0,0,0],"id":14,"left_children":[1,3,5,7,9,11,13,15,17,19,21,23,25,27,29,31,33,35,37,39,41,43,45,47,49,51,53,55,57,59,61,63,65,67,69,71,73,75,77,79,81,83,85,87,89,91,93,95,97,99,101,103,105,107,109,111,113,115,117,119,121,123,125,-1,-1,-1,-1,-1,-1,-1,-1,-1,-1,-1,-1,-1,-1,-1,-1,-1,-1,-1,-1,-1,-1,-1,-1,-1,-1,